{"learner":{"attributes":{"best_iteration":"99","best_ntree_limit":"100","scikit_learn":"{\"use_label_encoder\": true, \"n_estimators\": 100, \"objective\": \"binary:logistic\", \"learning_rate\": null, \"verbosity\": null, \"booster\": null, \"tree_method\": null, \"gamma\": null, \"min_child_weight\": null, \"max_delta_step\": null, \"subsample\": null, \"colsample_bytree\": null, \"colsample_bylevel\": null, \"colsample_bynode\": null, \"reg_alpha\": null, \"reg_lambda\": null, \"scale_pos_weight\": null, \"base_score\": null, \"missing\": NaN, \"num_parallel_tree\": null, \"random_state\": null, \"n_jobs\": null, \"monotone_constraints\": null, \"interaction_constraints\": null, \"importance_type\": null, \"gpu_id\": null, \"validate_parameters\": null, \"predictor\": null, \"enable_categorical\": false, \"classes_\": [0, 6], \"n_classes_\": 2, \"_le\": {\"classes_\": [0, 6]}, \"_estimator_type\": \"classifier\"}"},"feature_names":[],"feature_types":[],"gradient_booster":{"model":{"gbtree_model_param":{"num_trees":"100","size_leaf_vector":"0"},"tree_info":[0,0,0,0,0,0,0,0,0,0,0,0,0,0,0,0,0,0,0,0,0,0,0,0,0,0,0,0,0,0,0,0,0,0,0,0,0,0,0,0,0,0,0,0,0,0,0,0,0,0,0,0,0,0,0,0,0,0,0,0,0,0,0,0,0,0,0,0,0,0,0,0,0,0,0,0,0,0,0,0,0,0,0,0,0,0,0,0,0,0,0,0,0,0,0,0,0,0,0,0],"trees":[{"base_weights":[-1.3529412E0,-8E-1,-1.5405406E0,-9.285714E-1,5E-1,-1.6747967E0,-7.586207E-1,-1.0833334E0,-0E0,6.666667E-1,-1.1666666E0,-4.6153846E-1,-1.5384616E0,-1.4E0,-0E0],"categories":[],"categories_nodes":[],"categories_segments":[],"categories_sizes":[],"default_left":[true,true,true,true,false,false,true,true,false,false,true,false,false,false,false],"id":0,"left_children":[1,3,5,7,-1,-1,9,11,-1,-1,13,-1,-1,-1,-1],"loss_changes":[4.057869E0,2.971428E0,2.6136322E0,2.0119047E0,0E0,0E0,4.994253E0,2.6858969E0,0E0,0E0,1.6333332E0,0E0,0E0,0E0,0E0],"parents":[2147483647,0,0,1,1,2,2,3,3,6,6,7,7,10,10],"right_children":[2,4,6,8,-1,-1,10,12,-1,-1,14,-1,-1,-1,-1],"split_conditions":[-5.696496E-1,-6.0805583E-1,9.503516E-1,1.1430651E0,1.5558725E-2,-5.2115403E-2,1.0581845E0,1.4410272E-1,-0E0,2.0744968E-2,9.326726E-1,-1.43619E-2,-4.7873E-2,-4.356443E-2,-0E0],"split_indices":[1,1,1,0,0,0,1,0,0,0,0,0,0,0,0],"split_type":[0,0,0,0,0,0,0,0,0,0,0,0,0,0,0],"sum_hessian":[5E1,1.4E1,3.6E1,1.3E1,1E0,2.975E1,6.25E0,1.1E1,2E0,1.25E0,5E0,5.5E0,5.5E0,4E0,1E0],"tree_param":{"num_deleted":"0","num_feature":"2","num_nodes":"15","size_leaf_vector":"0"}},{"base_weights":[-1.3138967E0,-1.3794335E0,-1.2049857E-1,-8.852733E-1,-1.5320206E0,4.0892285E-1,-6.551869E-1,-2.755537E-1,-1.3219125E0,-1.6482079E0,-7.930832E-1,-7.900395E-1,6.737715E-1,-1.5178432E0,-0E0,6.551812E-1,-1.2414773E0],"categories":[],"categories_nodes":[],"categories_segments":[],"categories_sizes":[],"default_left":[true,true,true,true,true,false,false,true,true,false,true,false,false,false,false,false,false],"id":1,"left_children":[1,3,5,7,9,-1,-1,11,13,-1,15,-1,-1,-1,-1,-1,-1],"loss_changes":[3.820572E0,2.2800217E0,1.3292575E0,3.2954445E0,1.7388458E0,0E0,0E0,3.9510536E0,2.0064554E0,0E0,5.195478E0,0E0,0E0,0E0,0E0,0E0,0E0],"parents":[2147483647,0,0,1,1,2,2,3,3,4,4,7,7,8,8,10,10],"right_children":[2,4,6,8,10,-1,-1,12,14,-1,16,-1,-1,-1,-1,-1,-1],"split_conditions":[1.7116063E0,-5.696496E-1,2.0376341E0,1.4410272E-1,9.503516E-1,1.2724636E-2,-2.0387746E-2,-3.344998E-1,1.1430651E0,-5.1288027E-2,1.0581845E0,-2.4584014E-2,2.0966051E-2,-4.7231413E-2,-0E0,2.038757E-2,-3.8631607E-2],"split_indices":[0,1,0,0,1,0,0,0,0,0,1,0,0,0,0,0,0],"split_type":[0,0,0,0,0,0,0,0,0,0,0,0,0,0,0,0,0],"sum_hessian":[4.997428E1,4.7224976E1,2.7493062E0,1.2746522E1,3.4478455E1,1.4996455E0,1.2496606E0,5.9996867E0,6.746835E0,2.8730486E1,5.747968E0,3.9997919E0,1.9998947E0,5.746835E0,1E0,1.2498655E0,4.498103E0],"tree_param":{"num_deleted":"0","num_feature":"2","num_nodes":"17","size_leaf_vector":"0"}},{"base_weights":[-1.2773962E0,-1.341073E0,-1.1880388E-1,-8.621006E-1,-1.4889754E0,4.0599227E-1,-6.4923656E-1,-2.675445E-1,-1.2884494E0,-1.6017705E0,-7.717416E-1,-7.010948E-1,7.930766E-1,-1.4796845E0,-0E0,6.439698E-1,-1.2109975E0],"categories":[],"categories_nodes":[],"categories_segments":[],"categories_sizes":[],"default_left":[true,true,true,true,true,false,false,true,true,false,true,false,false,false,false,false,false],"id":2,"left_children":[1,3,5,7,9,-1,-1,11,13,-1,15,-1,-1,-1,-1,-1,-1],"loss_changes":[3.5959167E0,2.1274796E0,1.3071883E0,3.1371956E0,1.6290054E0,0E0,0E0,3.7741468E0,1.906498E0,0E0,4.9727554E0,0E0,0E0,0E0,0E0,0E0,0E0],"parents":[2147483647,0,0,1,1,2,2,3,3,4,4,7,7,8,8,10,10],"right_children":[2,4,6,8,10,-1,-1,12,14,-1,16,-1,-1,-1,-1,-1,-1],"split_conditions":[1.7116063E0,-5.696496E-1,-3.8500416E-1,1.4410272E-1,9.503516E-1,1.2633445E-2,-2.0202586E-2,-1.3213766E-1,1.1430651E0,-4.9843013E-2,1.0581845E0,-2.1816283E-2,2.467852E-2,-4.6044007E-2,-0E0,2.0038698E-2,-3.768315E-2],"split_indices":[0,1,1,0,1,0,0,0,0,0,1,0,0,0,0,0,0],"split_type":[0,0,0,0,0,0,0,0,0,0,0,0,0,0,0,0,0],"sum_hessian":[4.9900806E1,4.7151814E1,2.7489915E0,1.273599E1,3.4415825E1,1.499765E0,1.2492263E0,5.998471E0,6.737519E0,2.8673288E1,5.742536E0,4.4985676E0,1.499903E0,5.737519E0,1E0,1.2494714E0,4.493065E0],"tree_param":{"num_deleted":"0","num_feature":"2","num_nodes":"17","size_leaf_vector":"0"}},{"base_weights":[-1.2429134E0,-1.3048912E0,-1.17142886E-1,-8.3952826E-1,-1.4487103E0,4.0356946E-1,-6.4380556E-1,-2.5890726E-1,-1.256818E0,-1.5584806E0,-7.513413E-1,-7.534307E-1,6.511934E-1,-1.4437801E0,-0E0,6.33022E-1,-1.1819495E0],"categories":[],"categories_nodes":[],"categories_segments":[],"categories_sizes":[],"default_left":[true,true,true,true,true,false,false,true,true,false,true,false,false,false,false,false,false],"id":3,"left_children":[1,3,5,7,9,-1,-1,11,13,-1,15,-1,-1,-1,-1,-1,-1],"loss_changes":[3.3903732E0,1.9985809E0,1.2878073E0,2.998353E0,1.5324783E0,0E0,0E0,3.6392522E0,1.8145685E0,0E0,4.762321E0,0E0,0E0,0E0,0E0,0E0,0E0],"parents":[2147483647,0,0,1,1,2,2,3,3,4,4,7,7,8,8,10,10],"right_children":[2,4,6,8,10,-1,-1,12,14,-1,16,-1,-1,-1,-1,-1,-1],"split_conditions":[1.7116063E0,-5.696496E-1,2.0376341E0,1.4410272E-1,9.503516E-1,1.2558052E-2,-2.0033589E-2,-3.344998E-1,1.1430651E0,-4.8495945E-2,1.0581845E0,-2.3444843E-2,2.0263478E-2,-4.4926755E-2,-0E0,1.9698031E-2,-3.6779255E-2],"split_indices":[0,1,0,0,1,0,0,0,0,0,1,0,0,0,0,0,0],"split_type":[0,0,0,0,0,0,0,0,0,0,0,0,0,0,0,0,0],"sum_hessian":[4.978236E1,4.7033863E1,2.7484975E0,1.2718232E1,3.431563E1,1.4995816E0,1.248916E0,5.9959126E0,6.722319E0,2.8581865E1,5.7337675E0,3.9964812E0,1.9994314E0,5.722319E0,1E0,1.2488314E0,4.484936E0],"tree_param":{"num_deleted":"0","num_feature":"2","num_nodes":"17","size_leaf_vector":"0"}},{"base_weights":[-1.2104938E0,-7.166484E-1,-1.3786842E0,-8.828857E-1,1.532491E-1,-1.4987303E0,-6.814989E-1,-2.5145292E-1,-1.409921E0,-0E0,2.2137234E-1,6.2232834E-1,-1.0580416E0,-6.68715E-1,7.66472E-1,-1.2510307E0,-1.8112652E-1],"categories":[],"categories_nodes":[],"categories_segments":[],"categories_sizes":[],"default_left":[true,true,true,true,true,false,true,true,false,false,false,false,true,false,false,false,false],"id":4,"left_children":[1,3,5,7,9,-1,11,13,-1,-1,-1,-1,15,-1,-1,-1,-1],"loss_changes":[3.2166977E0,2.296235E0,2.0485E0,3.8697596E0,3.3925116E-2,0E0,4.2040253E0,3.4823132E0,0E0,0E0,0E0,0E0,7.8440857E-1,0E0,0E0,0E0,0E0],"parents":[2147483647,0,0,1,1,2,2,3,3,4,4,6,6,7,7,12,12],"right_children":[2,4,6,8,10,-1,12,14,-1,-1,-1,-1,16,-1,-1,-1,-1],"split_conditions":[-5.696496E-1,1.1430651E0,9.503516E-1,1.4410272E-1,1.700364E0,-4.6636667E-2,1.0581845E0,-1.3213766E-1,-4.387315E-2,-0E0,6.888543E-3,1.9365272E-2,8.395218E-1,-2.0808706E-2,2.3850653E-2,-3.8928885E-2,-5.6361957E-3],"split_indices":[1,0,1,0,0,0,1,0,0,0,0,0,0,0,0,0,0],"split_type":[0,0,0,0,0,0,0,0,0,0,0,0,0,0,0,0,0],"sum_hessian":[4.9622864E1,1.3943243E1,3.5679623E1,1.1693656E1,2.2495868E0,2.9457703E1,6.221918E0,5.991929E0,5.7017274E0,1E0,1.2495868E0,1.2479585E0,4.9739594E0,4.493173E0,1.4987557E0,3.7270856E0,1.2468739E0],"tree_param":{"num_deleted":"0","num_feature":"2","num_nodes":"17","size_leaf_vector":"0"}},{"base_weights":[-1.1795484E0,-1.2301393E0,3.1856176E-2,-7.482912E-1,-1.38425E0,-2.4337433E-1,-1.098966E0,-1.4841461E0,-7.608902E-1,-7.190923E-1,6.2964827E-1,-1.3779224E0,2.1725687E-1,6.118797E-1,-1.1677458E0],"categories":[],"categories_nodes":[],"categories_segments":[],"categories_sizes":[],"default_left":[true,true,false,true,true,true,true,false,true,false,false,false,false,false,false],"id":5,"left_children":[1,3,-1,5,7,9,11,-1,13,-1,-1,-1,-1,-1,-1],"loss_changes":[3.1296997E0,2.560585E0,0E0,2.195983E0,1.0825043E0,3.3544931E0,3.2095728E0,0E0,4.600603E0,0E0,0E0,0E0,0E0,0E0,0E0],"parents":[2147483647,0,0,1,1,3,3,4,4,5,5,6,6,8,8],"right_children":[2,4,-1,6,8,10,12,-1,14,-1,-1,-1,-1,-1,-1],"split_conditions":[1.8031511E0,-5.696496E-1,9.91283E-4,1.4410272E-1,9.503516E-1,-3.344998E-1,1.1430651E0,-4.6182845E-2,1.0581845E0,-2.237632E-2,1.9593049E-2,-4.2877432E-2,6.76048E-3,1.9040136E-2,-3.633727E-2],"split_indices":[0,1,0,0,1,0,0,0,1,0,0,0,0,0,0],"split_type":[0,0,0,0,0,0,0,0,0,0,0,0,0,0,0],"sum_hessian":[4.94276E1,4.7431305E1,1.9962976E0,1.2912911E1,3.451839E1,5.98683E0,6.926081E0,2.856056E1,5.9578323E0,3.989328E0,1.9975022E0,5.6762066E0,1.2498746E0,1.2468655E0,4.710967E0],"tree_param":{"num_deleted":"0","num_feature":"2","num_nodes":"15","size_leaf_vector":"0"}},{"base_weights":[-1.1502136E0,-1.1997917E0,3.119527E-2,-7.2976255E-1,-1.3504692E0,-2.3642178E-1,-1.0734773E0,-1.4483074E0,-7.4163383E-1,-6.382833E-1,7.41189E-1,-1.3476204E0,2.1350618E-1,6.016674E-1,-1.1411139E0],"categories":[],"categories_nodes":[],"categories_segments":[],"categories_sizes":[],"default_left":[true,true,false,true,true,true,true,false,true,false,false,false,false,false,false],"id":6,"left_children":[1,3,-1,5,7,9,11,-1,13,-1,-1,-1,-1,-1,-1],"loss_changes":[2.977562E0,2.4281769E0,0E0,2.099216E0,1.0300522E0,3.215455E0,3.073577E0,0E0,4.410759E0,0E0,0E0,0E0,0E0,0E0,0E0],"parents":[2147483647,0,0,1,1,3,3,4,4,5,5,6,6,8,8],"right_children":[2,4,-1,6,8,10,12,-1,14,-1,-1,-1,-1,-1,-1],"split_conditions":[1.8031511E0,-5.696496E-1,9.707173E-4,1.4410272E-1,9.503516E-1,-1.3213766E-1,1.1430651E0,-4.5067634E-2,1.0581845E0,-1.9861748E-2,2.3063913E-2,-4.193451E-2,6.643768E-3,1.8722355E-2,-3.5508554E-2],"split_indices":[0,1,0,0,1,0,0,0,1,0,0,0,0,0,0],"split_type":[0,0,0,0,0,0,0,0,0,0,0,0,0,0,0],"sum_hessian":[4.919691E1,4.720057E1,1.9963442E0,1.2876455E1,3.4324112E1,5.9804435E0,6.8960114E0,2.8384054E1,5.9400573E0,4.484232E0,1.4962119E0,5.6461887E0,1.2498224E0,1.2455647E0,4.694493E0],"tree_param":{"num_deleted":"0","num_feature":"2","num_nodes":"15","size_leaf_vector":"0"}},{"base_weights":[-1.1222283E0,-1.1798711E0,-9.58463E-2,-7.603632E-1,-1.3104599E0,4.198967E-1,-6.2632287E-1,-2.2884987E-1,-1.1473761E0,-1.410961E0,-6.7797315E-1,-6.86799E-1,6.090624E-1,-1.3031228E0,-1.9402121E-1,5.9168303E-1,-1.0781369E0],"categories":[],"categories_nodes":[],"categories_segments":[],"categories_sizes":[],"default_left":[true,true,true,true,true,false,false,true,true,false,true,false,false,false,false,false,false],"id":7,"left_children":[1,3,5,7,9,-1,-1,11,13,-1,15,-1,-1,-1,-1,-1,-1],"loss_changes":[2.8412743E0,1.5888748E0,1.2872349E0,2.5319285E0,1.2431908E0,0E0,0E0,3.094047E0,8.7741756E-1,0E0,4.0266943E0,0E0,0E0,0E0,0E0,0E0,0E0],"parents":[2147483647,0,0,1,1,2,2,3,3,4,4,7,7,8,8,10,10],"right_children":[2,4,6,8,10,-1,-1,12,14,-1,16,-1,-1,-1,-1,-1,-1],"split_conditions":[1.7116063E0,-5.696496E-1,2.0376341E0,1.4410272E-1,9.503516E-1,1.3066115E-2,-1.9489571E-2,-3.344998E-1,1.0948837E0,-4.390551E-2,1.0581845E0,-2.1371434E-2,1.8952468E-2,-4.054986E-2,-6.0374453E-3,1.8411668E-2,-3.3548873E-2],"split_indices":[0,1,0,0,1,0,0,0,0,0,1,0,0,0,0,0,0],"split_type":[0,0,0,0,0,0,0,0,0,0,0,0,0,0,0,0,0],"sum_hessian":[4.893543E1,4.6191704E1,2.7437248E0,1.2585186E1,3.3606518E1,1.4968766E0,1.2468481E0,5.973146E0,6.61204E0,2.7936617E1,5.669901E0,3.9788866E0,1.9942592E0,5.368176E0,1.2438638E0,1.2440679E0,4.4258327E0],"tree_param":{"num_deleted":"0","num_feature":"2","num_nodes":"17","size_leaf_vector":"0"}},{"base_weights":[-1.0959811E0,-1.1440955E0,3.539892E-2,-6.943776E-1,-1.2891657E0,-2.2235273E-1,-1.0257329E0,-1.3831158E0,-7.077457E-1,-6.096177E-1,7.1712446E-1,-1.2928568E0,2.1106309E-1,5.819188E-1,-1.0939525E0],"categories":[],"categories_nodes":[],"categories_segments":[],"categories_sizes":[],"default_left":[true,true,false,true,true,true,true,false,true,false,false,false,false,false,false],"id":8,"left_children":[1,3,-1,5,7,9,11,-1,13,-1,-1,-1,-1,-1,-1],"loss_changes":[2.7432365E0,2.213848E0,0E0,1.9288712E0,9.2554474E-1,2.9711108E0,2.8583536E0,0E0,4.072255E0,0E0,0E0,0E0,0E0,0E0,0E0],"parents":[2147483647,0,0,1,1,3,3,4,4,5,5,6,6,8,8],"right_children":[2,4,-1,6,8,10,12,-1,14,-1,-1,-1,-1,-1,-1],"split_conditions":[1.8031511E0,-5.696496E-1,1.1015241E-3,1.4410272E-1,9.503516E-1,-1.3213766E-1,1.1430651E0,-4.3039035E-2,1.0581845E0,-1.8969748E-2,2.2315085E-2,-4.023041E-2,6.567745E-3,1.8107828E-2,-3.4041014E-2],"split_indices":[0,1,0,0,1,0,0,0,1,0,0,0,0,0,0],"split_type":[0,0,0,0,0,0,0,0,0,0,0,0,0,0,0],"sum_hessian":[4.8649975E1,4.665464E1,1.9953325E0,1.2790512E1,3.386413E1,5.964688E0,6.8258243E0,2.7966278E1,5.897852E0,4.4722686E0,1.492419E0,5.576155E0,1.2496692E0,1.2423862E0,4.6554656E0],"tree_param":{"num_deleted":"0","num_feature":"2","num_nodes":"15","size_leaf_vector":"0"}},{"base_weights":[-1.0705407E0,-1.1535516E0,-3.361029E-1,-5.7360756E-1,-1.2324399E0,2.819996E-1,-8.017695E-1,-9.2907536E-1,4.6695858E-1,-1.2877843E0,-7.57948E-1,-2.3141669E-1,6.700849E-1,-1.0696411E0,-1.19822696E-1,5.7236725E-1,-1.1906265E0],"categories":[],"categories_nodes":[],"categories_segments":[],"categories_sizes":[],"default_left":[true,true,true,true,true,true,true,false,false,false,true,false,false,false,false,false,false],"id":9,"left_children":[1,3,5,7,9,11,13,-1,-1,-1,15,-1,-1,-1,-1,-1,-1],"loss_changes":[2.6201515E0,1.3022118E0,2.0743148E0,3.0707784E0,1.6212463E-2,8.522067E-1,5.883529E-1,0E0,0E0,0E0,4.352368E0,0E0,0E0,0E0,0E0,0E0,0E0],"parents":[2147483647,0,0,1,1,2,2,3,3,4,4,5,5,6,6,10,10],"right_children":[2,4,6,8,10,12,14,-1,-1,-1,16,-1,-1,-1,-1,-1,-1],"split_conditions":[1.1430651E0,-9.6848375E-1,-4.322734E-1,-1.1265402E0,9.503516E-1,-8.281532E-1,4.0675545E-1,-2.8910456E-2,1.4530561E-2,-4.0072564E-2,1.0581845E0,-7.2010974E-3,2.0851333E-2,-3.3284504E-2,-3.7285767E-3,1.781061E-2,-3.704926E-2],"split_indices":[0,1,1,1,1,1,1,0,0,0,1,0,0,0,0,0,0],"split_type":[0,0,0,0,0,0,0,0,0,0,0,0,0,0,0,0,0],"sum_hessian":[4.833639E1,4.2915176E1,5.4212155E0,6.129023E0,3.6786156E1,2.4988217E0,2.9223936E0,4.648271E0,1.4807516E0,3.1408636E1,5.377518E0,1.2494982E0,1.2493236E0,1.690031E0,1.2323625E0,1.2405306E0,4.1369877E0],"tree_param":{"num_deleted":"0","num_feature":"2","num_nodes":"17","size_leaf_vector":"0"}},{"base_weights":[-1.0459331E0,-6.114483E-1,-1.1970445E0,-7.5918496E-1,1.4271212E-1,-1.3057691E0,-5.802746E-1,-1.9488417E-1,-1.2457131E0,5.630212E-1,-9.1822493E-1,-6.382785E-1,6.046945E-1,-1.1076007E0,-1.148515E-1],"categories":[],"categories_nodes":[],"categories_segments":[],"categories_sizes":[],"default_left":[true,true,true,true,false,false,true,true,false,false,true,false,false,false,false],"id":10,"left_children":[1,3,5,7,-1,-1,9,11,-1,-1,13,-1,-1,-1,-1],"loss_changes":[2.486786E0,1.7455878E0,1.6114273E0,3.1742187E0,0E0,0E0,3.2581022E0,2.849166E0,0E0,0E0,7.6370525E-1,0E0,0E0,0E0,0E0],"parents":[2147483647,0,0,1,1,2,2,3,3,6,6,7,7,10,10],"right_children":[2,4,6,8,-1,-1,10,12,-1,-1,14,-1,-1,-1,-1],"split_conditions":[-5.696496E-1,1.1430651E0,9.503516E-1,1.4410272E-1,4.440837E-3,-4.0632203E-2,1.0581845E0,-3.344998E-1,-3.8763415E-2,1.7519783E-2,8.395218E-1,-1.98616E-2,1.8816551E-2,-3.4465708E-2,-3.573886E-3],"split_indices":[1,0,1,0,0,0,1,0,0,0,0,0,0,0,0],"split_type":[0,0,0,0,0,0,0,0,0,0,0,0,0,0,0],"sum_hessian":[4.8024265E1,1.3694715E1,3.432955E1,1.1445859E1,2.248855E0,2.8235132E1,6.0944204E0,5.947824E0,5.4980354E0,1.2385116E0,4.855909E0,3.9558814E0,1.9919428E0,3.6231513E0,1.2327574E0],"tree_param":{"num_deleted":"0","num_feature":"2","num_nodes":"15","size_leaf_vector":"0"}},{"base_weights":[-1.0227921E0,-1.0690432E0,4.0635996E-2,-6.4027584E-1,-1.2094125E0,-1.8926713E-1,-9.6340567E-1,-1.2990037E0,-6.611203E-1,-5.6389993E-1,7.0627725E-1,-1.221765E0,2.0584407E-1,5.5387384E-1,-1.0294795E0],"categories":[],"categories_nodes":[],"categories_segments":[],"categories_sizes":[],"default_left":[true,true,false,true,true,true,true,false,true,false,false,false,false,false,false],"id":11,"left_children":[1,3,-1,5,7,9,11,-1,13,-1,-1,-1,-1,-1,-1],"loss_changes":[2.4374695E0,2.0352478E0,0E0,1.8052568E0,8.135071E-1,2.7257273E0,2.577929E0,0E0,3.6215813E0,0E0,0E0,0E0,0E0,0E0,0E0],"parents":[2147483647,0,0,1,1,3,3,4,4,5,5,6,6,8,8],"right_children":[2,4,-1,6,8,10,12,-1,14,-1,-1,-1,-1,-1,-1],"split_conditions":[1.8031511E0,-5.696496E-1,1.2644886E-3,1.4410272E-1,9.503516E-1,-1.3213766E-1,1.1430651E0,-4.0421683E-2,1.0581845E0,-1.7547129E-2,2.1977548E-2,-3.801821E-2,6.405343E-3,1.7235141E-2,-3.2034777E-2],"split_indices":[0,1,0,0,1,0,0,0,1,0,0,0,0,0,0],"split_type":[0,0,0,0,0,0,0,0,0,0,0,0,0,0,0],"sum_hessian":[4.7674335E1,4.5682228E1,1.9921086E0,1.26384945E1,3.304373E1,5.9372735E0,6.701221E0,2.7225834E1,5.817898E0,4.447203E0,1.4900701E0,5.4516926E0,1.2495284E0,1.2363392E0,4.5815587E0],"tree_param":{"num_deleted":"0","num_feature":"2","num_nodes":"15","size_leaf_vector":"0"}},{"base_weights":[-1.0004083E0,-1.0802096E0,-3.061844E-1,-5.26185E-1,-1.1569624E0,2.7446964E-1,-7.5113577E-1,-8.732583E-1,4.7014585E-1,-2.3287684E-1,6.598829E-1,-1.0166392E0,-9.699237E-2,-1.1139988E0,-4.4371736E-1],"categories":[],"categories_nodes":[],"categories_segments":[],"categories_sizes":[],"default_left":[true,true,true,true,false,true,true,true,false,false,false,false,false,false,false],"id":12,"left_children":[1,3,5,7,-1,9,11,13,-1,-1,-1,-1,-1,-1,-1],"loss_changes":[2.3452415E0,1.2166214E0,1.8533741E0,2.8510692E0,0E0,8.377372E-1,5.7477427E-1,8.314943E-2,0E0,0E0,0E0,0E0,0E0,0E0,0E0],"parents":[2147483647,0,0,1,1,2,2,3,3,5,5,6,6,7,7],"right_children":[2,4,6,8,-1,10,12,14,-1,-1,-1,-1,-1,-1,-1],"split_conditions":[1.1430651E0,-9.6848375E-1,-4.322734E-1,-1.1265402E0,-3.600172E-2,-8.281532E-1,4.0675545E-1,-1.377658E0,1.462974E-2,-7.2465334E-3,2.0533873E-2,-3.163522E-2,-3.0181555E-3,-3.4664802E-2,-1.3807353E-2],"split_indices":[0,1,1,1,0,1,1,1,0,0,0,0,0,0,0],"split_type":[0,0,0,0,0,0,0,0,0,0,0,0,0,0,0],"sum_hessian":[4.7303005E1,4.1927433E1,5.3755693E0,6.057581E0,3.5869854E1,2.4983766E0,2.877193E0,4.5841956E0,1.4733857E0,1.2494333E0,1.2489432E0,1.6523745E0,1.2248185E0,1.916571E0,2.6676245E0],"tree_param":{"num_deleted":"0","num_feature":"2","num_nodes":"15","size_leaf_vector":"0"}},{"base_weights":[-9.7815746E-1,-1.0563855E0,-3.0064678E-1,-5.1593643E-1,-1.1315559E0,2.6974505E-1,-7.3916894E-1,-8.5769033E-1,4.6122804E-1,-1.1846111E0,-6.860457E-1,-2.2884463E-1,6.485655E-1,-1.0016384E0,-9.534893E-2,-1.0961201E0,-4.3438488E-1,-1.2033739E0,-3.7115726E-1,5.636739E-1,-1.1060178E0],"categories":[],"categories_nodes":[],"categories_segments":[],"categories_sizes":[],"default_left":[true,true,true,true,true,true,true,true,false,true,true,false,false,false,false,false,false,false,false,false,false],"id":13,"left_children":[1,3,5,7,9,11,13,15,-1,17,19,-1,-1,-1,-1,-1,-1,-1,-1,-1,-1],"loss_changes":[2.2245026E0,1.1468925E0,1.790875E0,2.7465665E0,5.1490784E-2,8.0913746E-1,5.575304E-1,8.557558E-2,0E0,3.099823E-2,3.9125113E0,0E0,0E0,0E0,0E0,0E0,0E0,0E0,0E0,0E0,0E0],"parents":[2147483647,0,0,1,1,2,2,3,3,4,4,5,5,6,6,7,7,9,9,10,10],"right_children":[2,4,6,8,10,12,14,16,-1,18,20,-1,-1,-1,-1,-1,-1,-1,-1,-1,-1],"split_conditions":[1.1430651E0,-9.6848375E-1,-4.322734E-1,-1.1265402E0,9.503516E-1,-8.281532E-1,4.0675545E-1,-1.377658E0,1.4352241E-2,1.0033388E0,1.0581845E0,-7.1210614E-3,2.0181704E-2,-3.1168433E-2,-2.9670156E-3,-3.4108464E-2,-1.351695E-2,-3.744593E-2,-1.1549467E-2,1.7540095E-2,-3.4416456E-2],"split_indices":[0,1,1,1,1,1,1,1,0,0,1,0,0,0,0,0,0,0,0,0,0],"split_type":[0,0,0,0,0,0,0,0,0,0,0,0,0,0,0,0,0,0,0,0,0],"sum_hessian":[4.6963863E1,4.1601208E1,5.3626556E0,6.0399094E0,3.55613E1,2.4981518E0,2.8645036E0,4.5654526E0,1.4744568E0,3.0294565E1,5.266732E0,1.2495033E0,1.2486486E0,1.6401013E0,1.2244024E0,1.9037313E0,2.661721E0,2.914302E1,1.1515435E0,1.2386591E0,4.028073E0],"tree_param":{"num_deleted":"0","num_feature":"2","num_nodes":"21","size_leaf_vector":"0"}},{"base_weights":[-9.5769334E-1,-5.514774E-1,-1.1019444E0,-6.6048515E-1,3.5444131E-1,-1.2088959E0,-5.123756E-1,-7.738674E-1,-1.4149771E-2,5.545127E-1,-8.388868E-1,-3.2588366E-1,-1.1323472E0,-1.0252845E0,-8.21943E-2],"categories":[],"categories_nodes":[],"categories_segments":[],"categories_sizes":[],"default_left":[true,true,true,true,false,false,true,true,false,false,true,false,false,false,false],"id":14,"left_children":[1,3,5,7,-1,-1,9,11,-1,-1,13,-1,-1,-1,-1],"loss_changes":[2.1813354E0,1.663507E0,1.5321617E0,9.6145964E-1,0E0,0E0,2.894955E0,1.4409165E0,0E0,0E0,7.251334E-1,0E0,0E0,0E0,0E0],"parents":[2147483647,0,0,1,1,2,2,3,3,6,6,7,7,10,10],"right_children":[2,4,6,8,-1,-1,10,12,-1,-1,14,-1,-1,-1,-1],"split_conditions":[-5.696496E-1,-6.420306E-1,9.503516E-1,1.1430651E0,1.102931E-2,-3.7617758E-2,1.0581845E0,1.4410272E-1,-4.403048E-4,1.7255021E-2,8.395218E-1,-1.0140669E-2,-3.523576E-2,-3.190424E-2,-2.557677E-3],"split_indices":[1,1,1,0,0,0,1,0,0,0,0,0,0,0,0],"split_type":[0,0,0,0,0,0,0,0,0,0,0,0,0,0,0],"sum_hessian":[4.6596706E1,1.3474661E1,3.3122044E1,1.2269245E1,1.2054161E0,2.7146948E1,5.975096E0,1.0270283E1,1.9989625E0,1.2364973E0,4.7385993E0,5.4138246E0,4.8564577E0,3.5172353E0,1.2213639E0],"tree_param":{"num_deleted":"0","num_feature":"2","num_nodes":"15","size_leaf_vector":"0"}},{"base_weights":[-9.375816E-1,-5.386816E-1,-1.0801322E0,-6.46006E-1,3.4818807E-1,-1.1857226E0,-5.0121564E-1,-7.574179E-1,-1.3856214E-2,5.455442E-1,-8.230366E-1,-3.1755736E-1,-1.112363E0,-1.006936E0,-8.08026E-2],"categories":[],"categories_nodes":[],"categories_segments":[],"categories_sizes":[],"default_left":[true,true,true,true,false,false,true,true,false,false,true,false,false,false,false],"id":15,"left_children":[1,3,5,7,-1,-1,9,11,-1,-1,13,-1,-1,-1,-1],"loss_changes":[2.1025543E0,1.597806E0,1.4708672E0,9.203472E-1,0E0,0E0,2.7881284E0,1.3981509E0,0E0,0E0,6.979666E-1,0E0,0E0,0E0,0E0],"parents":[2147483647,0,0,1,1,2,2,3,3,6,6,7,7,10,10],"right_children":[2,4,6,8,-1,-1,10,12,-1,-1,14,-1,-1,-1,-1],"split_conditions":[-5.696496E-1,-6.420306E-1,9.503516E-1,1.1430651E0,1.0834725E-2,-3.6896665E-2,1.0581845E0,1.4410272E-1,-4.3117005E-4,1.6975945E-2,8.395218E-1,-9.881576E-3,-3.46139E-2,-3.133328E-2,-2.5143707E-3],"split_indices":[1,1,1,0,0,0,1,0,0,0,0,0,0,0,0],"split_type":[0,0,0,0,0,0,0,0,0,0,0,0,0,0,0],"sum_hessian":[4.6207897E1,1.3423565E1,3.2784332E1,1.2216746E1,1.2068186E0,2.6840612E1,5.9437194E0,1.0217774E1,1.9989717E0,1.234191E0,4.7095284E0,5.4091854E0,4.808589E0,3.488558E0,1.2209703E0],"tree_param":{"num_deleted":"0","num_feature":"2","num_nodes":"15","size_leaf_vector":"0"}},{"base_weights":[-9.181684E-1,-1.0044774E0,-3.262131E-1,-4.3851903E-1,-1.0855957E0,5.8673024E-2,-5.929741E-1,-7.815E-1,4.699637E-1,-1.1401964E0,-6.487975E-1,-3.4968153E-1,4.4442847E-1,-1.0355945E0,2.0172647E-1,-1.0554354E0,-3.2118675E-1,5.367623E-1,-1.0533296E0],"categories":[],"categories_nodes":[],"categories_segments":[],"categories_sizes":[],"default_left":[true,true,true,true,true,true,true,true,false,false,true,false,false,false,false,false,false,false,false],"id":16,"left_children":[1,3,5,7,9,11,13,15,-1,-1,17,-1,-1,-1,-1,-1,-1,-1,-1],"loss_changes":[2.0638657E0,1.3774033E0,7.9841244E-1,2.467023E0,8.622742E-2,7.7835387E-1,1.7857534E0,3.2521224E-1,0E0,0E0,3.5237827E0,0E0,0E0,0E0,0E0,0E0,0E0,0E0,0E0],"parents":[2147483647,0,0,1,1,2,2,3,3,4,4,5,5,6,6,7,7,10,10],"right_children":[2,4,6,8,10,12,14,16,-1,-1,18,-1,-1,-1,-1,-1,-1,-1,-1],"split_conditions":[1.0145812E0,-9.6848375E-1,-4.3375057E-1,-1.1324489E0,9.503516E-1,-8.281532E-1,3.8459796E-1,-1.377658E0,1.4624072E-2,-3.5480008E-2,1.0581845E0,-1.0881198E-2,1.3829481E-2,-3.222506E-2,6.2772133E-3,-3.284246E-2,-9.994512E-3,1.6702674E-2,-3.277693E-2],"split_indices":[0,1,1,1,1,1,1,1,0,0,1,0,0,0,0,0,0,0,0],"split_type":[0,0,0,0,0,0,0,0,0,0,0,0,0,0,0,0,0,0,0],"sum_hessian":[4.580936E1,3.9371925E1,6.437435E0,5.738763E0,3.3633163E1,2.9545817E0,3.4828534E0,4.2674427E0,1.4713198E0,2.846466E1,5.168502E0,1.4806764E0,1.4739052E0,2.0422604E0,1.440593E0,1.8648151E0,2.402628E0,1.2317494E0,3.9367526E0],"tree_param":{"num_deleted":"0","num_feature":"2","num_nodes":"19","size_leaf_vector":"0"}},{"base_weights":[-8.9955175E-1,-5.1176065E-1,-1.0401012E0,-6.186259E-1,3.5676977E-1,-1.1437914E0,-4.7808346E-1,-7.265047E-1,-1.2491572E-2,5.281609E-1,-7.907941E-1,-2.9686287E-1,-1.0796335E0,-9.709147E-1,-7.4611485E-2],"categories":[],"categories_nodes":[],"categories_segments":[],"categories_sizes":[],"default_left":[true,true,true,true,false,false,true,true,false,false,true,false,false,false,false],"id":17,"left_children":[1,3,5,7,-1,-1,9,11,-1,-1,13,-1,-1,-1,-1],"loss_changes":[1.9974136E0,1.549408E0,1.3819656E0,8.4836006E-1,0E0,0E0,2.5804844E0,1.3657236E0,0E0,0E0,6.55663E-1,0E0,0E0,0E0,0E0],"parents":[2147483647,0,0,1,1,2,2,3,3,6,6,7,7,10,10],"right_children":[2,4,6,8,-1,-1,10,12,-1,-1,14,-1,-1,-1,-1],"split_conditions":[-5.696496E-1,-6.420306E-1,9.503516E-1,1.1430651E0,1.1101766E-2,-3.5591874E-2,1.0581845E0,1.4410272E-1,-3.8870587E-4,1.6435022E-2,8.395218E-1,-9.237615E-3,-3.3595443E-2,-3.0212391E-2,-2.3217192E-3],"split_indices":[1,1,1,0,0,0,1,0,0,0,0,0,0,0,0],"split_type":[0,0,0,0,0,0,0,0,0,0,0,0,0,0,0],"sum_hessian":[4.5413193E1,1.3315482E1,3.209771E1,1.2112834E1,1.2026477E0,2.6224274E1,5.873435E0,1.0114148E1,1.998686E0,1.2291815E0,4.6442533E0,5.3931365E0,4.7210116E0,3.4267435E0,1.21751E0],"tree_param":{"num_deleted":"0","num_feature":"2","num_nodes":"15","size_leaf_vector":"0"}},{"base_weights":[-8.8135433E-1,-9.6649104E-1,-3.052208E-1,-4.1660756E-1,-1.0465406E0,6.329545E-2,-5.6455535E-1,-7.5567746E-1,4.6926132E-1,-4.475558E-1,-1.0777922E0,-3.4028754E-1,4.423037E-1,-1.0047393E0,2.0930238E-1,-1.0290002E0,-3.0396852E-1],"categories":[],"categories_nodes":[],"categories_segments":[],"categories_sizes":[],"default_left":[true,true,true,true,true,true,true,true,false,false,false,false,false,false,false,false,false],"id":18,"left_children":[1,3,5,7,9,11,13,15,-1,-1,-1,-1,-1,-1,-1,-1,-1],"loss_changes":[1.961338E0,1.3078384E0,7.414158E-1,2.3657992E0,1.5260315E-1,7.5457895E-1,1.7209796E0,3.3235145E-1,0E0,0E0,0E0,0E0,0E0,0E0,0E0,0E0,0E0],"parents":[2147483647,0,0,1,1,2,2,3,3,4,4,5,5,6,6,7,7],"right_children":[2,4,6,8,10,12,14,16,-1,-1,-1,-1,-1,-1,-1,-1,-1],"split_conditions":[1.0145812E0,-9.6848375E-1,-4.3375057E-1,-1.1324489E0,-1.5518848E0,-8.281532E-1,3.8459796E-1,-1.377658E0,1.4602216E-2,-1.3926796E-2,-3.3538144E-2,-1.0588881E-2,1.37633635E-2,-3.1264924E-2,6.512956E-3,-3.201986E-2,-9.458725E-3],"split_indices":[0,1,1,1,0,1,1,1,0,0,0,0,0,0,0,0,0],"split_type":[0,0,0,0,0,0,0,0,0,0,0,0,0,0,0,0,0],"sum_hessian":[4.500052E1,3.8616512E1,6.384006E0,5.695673E0,3.2920837E1,2.9491596E0,3.4348466E0,4.225363E0,1.47031E0,2.3921752E0,3.0528664E1,1.477753E0,1.4714066E0,1.9992731E0,1.4355736E0,1.8362551E0,2.389108E0],"tree_param":{"num_deleted":"0","num_feature":"2","num_nodes":"17","size_leaf_vector":"0"}},{"base_weights":[-8.6325884E-1,-4.8652112E-1,-1.0016865E0,-5.9295666E-1,3.6436453E-1,-1.1060628E0,-4.4648564E-1,-1.0927761E0,-3.9838538E-1,5.3696907E-1,-7.600853E-1,-1.5187648E-1,-7.835182E-1,-9.368423E-1,-6.849402E-2],"categories":[],"categories_nodes":[],"categories_segments":[],"categories_sizes":[],"default_left":[true,true,true,true,false,false,true,false,true,false,true,false,false,false,false],"id":19,"left_children":[1,3,5,7,-1,-1,9,-1,11,-1,13,-1,-1,-1,-1],"loss_changes":[1.8918648E0,1.5023541E0,1.3848038E0,8.2936287E-1,0E0,0E0,2.5075154E0,0E0,9.191003E-1,0E0,6.173713E-1,0E0,0E0,0E0,0E0],"parents":[2147483647,0,0,1,1,2,2,3,3,6,6,8,8,10,10],"right_children":[2,4,6,8,-1,-1,10,-1,12,-1,14,-1,-1,-1,-1],"split_conditions":[-5.696496E-1,-6.420306E-1,9.503516E-1,-1.377658E0,1.1338095E-2,-3.4417853E-2,1.0581845E0,-3.4004405E-2,-8.1338155E-1,1.6709108E-2,8.395218E-1,-4.726009E-3,-2.4381088E-2,-2.9152144E-2,-2.1313594E-3],"split_indices":[1,1,1,1,0,0,1,0,1,0,0,0,0,0,0],"split_type":[0,0,0,0,0,0,0,0,0,0,0,0,0,0,0],"sum_hessian":[4.4621605E1,1.3203156E1,3.1418447E1,1.2004649E1,1.1985073E0,2.5611385E1,5.807062E0,2.0702398E0,9.93441E0,1.2318089E0,4.575253E0,6.907518E0,3.026892E0,3.3615015E0,1.2137518E0],"tree_param":{"num_deleted":"0","num_feature":"2","num_nodes":"15","size_leaf_vector":"0"}},{"base_weights":[-8.462004E-1,-9.306518E-1,-2.828302E-1,-3.981337E-1,-1.0093051E0,7.203505E-2,-5.3766984E-1,-7.3185414E-1,4.632479E-1,-4.1931257E-1,-1.0406247E0,-3.2838026E-1,4.443564E-1,-9.759408E-1,2.1631087E-1,-9.985149E-1,-2.9455456E-1],"categories":[],"categories_nodes":[],"categories_segments":[],"categories_sizes":[],"default_left":[true,true,true,true,true,true,true,true,false,false,false,false,false,false,false,false,false],"id":20,"left_children":[1,3,5,7,9,11,13,15,-1,-1,-1,-1,-1,-1,-1,-1,-1],"loss_changes":[1.8882294E0,1.2269745E0,7.017505E-1,2.2523909E0,1.7773056E-1,7.342352E-1,1.6602247E0,3.1051564E-1,0E0,0E0,0E0,0E0,0E0,0E0,0E0,0E0,0E0],"parents":[2147483647,0,0,1,1,2,2,3,3,4,4,5,5,6,6,7,7],"right_children":[2,4,6,8,10,12,14,16,-1,-1,-1,-1,-1,-1,-1,-1,-1],"split_conditions":[1.0145812E0,-9.6848375E-1,-4.3375057E-1,-1.1324489E0,-1.5518848E0,-8.281532E-1,3.8459796E-1,-1.377658E0,1.4415094E-2,-1.3047938E-2,-3.238159E-2,-1.0218357E-2,1.3827238E-2,-3.036879E-2,6.731043E-3,-3.1071238E-2,-9.165787E-3],"split_indices":[0,1,1,1,0,1,1,1,0,0,0,0,0,0,0,0,0],"split_type":[0,0,0,0,0,0,0,0,0,0,0,0,0,0,0,0,0],"sum_hessian":[4.4219933E1,3.7888382E1,6.331551E0,5.6560807E0,3.22323E1,2.9462364E0,3.3853147E0,4.185058E0,1.4710226E0,2.3500874E0,2.9882212E1,1.4764252E0,1.4698112E0,1.9547062E0,1.4306085E0,1.8025287E0,2.3825295E0],"tree_param":{"num_deleted":"0","num_feature":"2","num_nodes":"17","size_leaf_vector":"0"}},{"base_weights":[-8.291057E-1,-9.122593E-1,-2.7757576E-1,-3.9085925E-1,-9.897268E-1,7.071349E-2,-5.2880126E-1,-7.1984035E-1,4.5449474E-1,-1.0447592E0,-5.685656E-1,-3.224098E-1,4.3603805E-1,-9.629651E-1,2.1220575E-1,-9.8454446E-1,-2.884764E-1,5.4507613E-1,-9.717531E-1],"categories":[],"categories_nodes":[],"categories_segments":[],"categories_sizes":[],"default_left":[true,true,true,true,true,true,true,true,false,false,true,false,false,false,false,false,false,false,false],"id":21,"left_children":[1,3,5,7,9,11,13,15,-1,-1,17,-1,-1,-1,-1,-1,-1,-1,-1],"loss_changes":[1.8029251E0,1.1691322E0,6.771217E-1,2.1726115E0,1.6821289E-1,7.0727146E-1,1.6087887E0,3.0560923E-1,0E0,0E0,3.2212875E0,0E0,0E0,0E0,0E0,0E0,0E0,0E0,0E0],"parents":[2147483647,0,0,1,1,2,2,3,3,4,4,5,5,6,6,7,7,10,10],"right_children":[2,4,6,8,10,12,14,16,-1,-1,18,-1,-1,-1,-1,-1,-1,-1,-1],"split_conditions":[1.0145812E0,-9.6848375E-1,-4.3375057E-1,-1.1324489E0,9.503516E-1,-8.281532E-1,3.8459796E-1,-1.377658E0,1.4142717E-2,-3.251024E-2,1.0581845E0,-1.0032571E-2,1.3568392E-2,-2.9965017E-2,6.603302E-3,-3.0636514E-2,-8.97665E-3,1.6961379E-2,-3.023848E-2],"split_indices":[0,1,1,1,1,1,1,1,0,0,1,0,0,0,0,0,0,0,0],"split_type":[0,0,0,0,0,0,0,0,0,0,0,0,0,0,0,0,0,0,0],"sum_hessian":[4.383358E1,3.7522324E1,6.3112535E0,5.635784E0,3.1886541E1,2.9458153E0,3.3654382E0,4.1638427E0,1.4719416E0,2.6891954E1,4.994587E0,1.4755046E0,1.4703106E0,1.9332128E0,1.4322256E0,1.7856743E0,2.3781683E0,1.2340654E0,3.7605214E0],"tree_param":{"num_deleted":"0","num_feature":"2","num_nodes":"19","size_leaf_vector":"0"}},{"base_weights":[-8.130899E-1,-4.5071423E-1,-9.494025E-1,-5.5787843E-1,3.8488626E-1,-1.0541621E0,-4.060543E-1,-1.0502311E0,-3.6929208E-1,5.3630376E-1,-7.165309E-1,-1.3329813E-1,-7.4327415E-1,-8.8904387E-1,-5.8805242E-2],"categories":[],"categories_nodes":[],"categories_segments":[],"categories_sizes":[],"default_left":[true,true,true,true,false,false,true,false,true,false,true,false,false,false,false],"id":22,"left_children":[1,3,5,7,-1,-1,9,-1,11,-1,13,-1,-1,-1,-1],"loss_changes":[1.7659931E0,1.4723196E0,1.3575745E0,8.058467E-1,0E0,0E0,2.3437383E0,0E0,8.5744226E-1,0E0,5.678756E-1,0E0,0E0,0E0,0E0],"parents":[2147483647,0,0,1,1,2,2,3,3,6,6,8,8,10,10],"right_children":[2,4,6,8,-1,-1,10,-1,12,-1,14,-1,-1,-1,-1],"split_conditions":[-5.696496E-1,-6.420306E-1,9.503516E-1,-1.377658E0,1.1976679E-2,-3.280284E-2,1.0581845E0,-3.2680515E-2,-8.1338155E-1,1.6688406E-2,8.395218E-1,-4.147898E-3,-2.3128796E-2,-2.7664779E-2,-1.8298692E-3],"split_indices":[1,1,1,1,0,0,1,0,1,0,0,0,0,0,0],"split_type":[0,0,0,0,0,0,0,0,0,0,0,0,0,0,0],"sum_hessian":[4.3414284E1,1.3044102E1,3.0370182E1,1.1855959E1,1.1881428E0,2.4673008E1,5.697174E0,2.0181358E0,9.837823E0,1.231617E0,4.465557E0,6.8633018E0,2.9745216E0,3.2590554E0,1.2065021E0],"tree_param":{"num_deleted":"0","num_feature":"2","num_nodes":"15","size_leaf_vector":"0"}},{"base_weights":[-7.973712E-1,-8.8016003E-1,-2.568532E-1,-3.738774E-1,-9.5660704E-1,7.866306E-2,-5.0389445E-1,-6.978776E-1,4.484418E-1,-3.7362796E-1,-9.885642E-1,-3.1130344E-1,4.3757707E-1,-9.367858E-1,2.1856636E-1,-9.567794E-1,-2.797789E-1],"categories":[],"categories_nodes":[],"categories_segments":[],"categories_sizes":[],"default_left":[true,true,true,true,true,true,true,true,false,false,false,false,false,false,false,false,false],"id":23,"left_children":[1,3,5,7,9,11,13,15,-1,-1,-1,-1,-1,-1,-1,-1,-1],"loss_changes":[1.7431431E0,1.1033726E0,6.4114696E-1,2.0697522E0,2.2970772E-1,6.8801665E-1,1.5541356E0,2.8667617E-1,0E0,0E0,0E0,0E0,0E0,0E0,0E0,0E0,0E0],"parents":[2147483647,0,0,1,1,2,2,3,3,4,4,5,5,6,6,7,7],"right_children":[2,4,6,8,10,12,14,16,-1,-1,-1,-1,-1,-1,-1,-1,-1],"split_conditions":[1.0145812E0,-9.6848375E-1,-4.3375057E-1,-1.1324489E0,-1.5518848E0,-8.281532E-1,3.8459796E-1,-1.377658E0,1.3954366E-2,-1.162635E-2,-3.0761598E-2,-9.686969E-3,1.36162825E-2,-2.9150385E-2,6.801228E-3,-2.9772537E-2,-8.706006E-3],"split_indices":[0,1,1,1,0,1,1,1,0,0,0,0,0,0,0,0,0],"split_type":[0,0,0,0,0,0,0,0,0,0,0,0,0,0,0,0,0],"sum_hessian":[4.3005943E1,3.674891E1,6.257035E0,5.5937934E0,3.1155117E1,2.9424114E0,3.3146234E0,4.1212993E0,1.4724939E0,2.2786338E0,2.8876482E1,1.4737777E0,1.4686339E0,1.8871826E0,1.4274408E0,1.7495246E0,2.371775E0],"tree_param":{"num_deleted":"0","num_feature":"2","num_nodes":"17","size_leaf_vector":"0"}},{"base_weights":[-7.815822E-1,-4.4998053E-1,-9.262257E-1,-6.162191E-1,2.8368706E-1,-1.03988E0,-3.7827352E-1,-1.20319024E-1,-1.0702509E0,-1.8443076E-1,6.263343E-1,5.4357946E-1,-6.8996733E-1,-5.349009E-1,5.7263345E-1,-3.4797636E-1,-1.1761384E0,-8.597145E-1,-5.377791E-2],"categories":[],"categories_nodes":[],"categories_segments":[],"categories_sizes":[],"default_left":[true,true,true,true,true,false,true,true,true,false,false,false,true,false,false,false,false,false,false],"id":24,"left_children":[1,3,5,7,9,-1,11,13,15,-1,-1,-1,17,-1,-1,-1,-1,-1,-1],"loss_changes":[1.6751499E0,2.0276055E0,1.4390373E0,2.7307549E0,6.7547476E-1,0E0,2.279008E0,2.3738737E0,8.810806E-2,0E0,0E0,0E0,5.3611803E-1,0E0,0E0,0E0,0E0,0E0,0E0],"parents":[2147483647,0,0,1,1,2,2,3,3,4,4,6,6,7,7,8,8,12,12],"right_children":[2,4,6,8,10,-1,12,14,16,-1,-1,-1,18,-1,-1,-1,-1,-1,-1],"split_conditions":[-4.3375057E-1,1.1430651E0,9.503516E-1,1.4410272E-1,-8.281532E-1,-3.2358415E-2,1.0581845E0,-3.344998E-1,-1.1738094E0,-5.739015E-3,1.9489927E-2,1.6914807E-2,8.395218E-1,-1.6644752E-2,1.7818892E-2,-1.0828137E-2,-3.659843E-2,-2.6752124E-2,-1.6734315E-3],"split_indices":[1,0,1,0,1,0,1,0,1,0,0,0,0,0,0,0,0,0,0],"split_type":[0,0,0,0,0,0,0,0,0,0,0,0,0,0,0,0,0,0,0],"sum_hessian":[4.2614594E1,1.4191325E1,2.8423267E1,1.1700291E1,2.4910345E0,2.279703E1,5.6262374E0,6.196923E0,5.503368E0,1.247911E0,1.2431235E0,1.2336605E0,4.392577E0,4.0199423E0,2.1769803E0,1.2516898E0,4.2516785E0,3.19006E0,1.2025172E0],"tree_param":{"num_deleted":"0","num_feature":"2","num_nodes":"19","size_leaf_vector":"0"}},{"base_weights":[-7.6689994E-1,-8.483308E-1,-2.4203332E-1,-3.5843894E-1,-9.234674E-1,1.4464301E-1,-4.4182113E-1,-6.7855257E-1,4.4575778E-1,-3.4811157E-1,-9.556391E-1,-2.6193526E-1,4.684142E-1,-9.110223E-1,-2.513426E-2,-9.4084966E-1,-2.6345816E-1,4.7157422E-1,-5.66358E-1],"categories":[],"categories_nodes":[],"categories_segments":[],"categories_sizes":[],"default_left":[true,true,true,true,true,true,true,true,false,false,false,false,false,false,true,false,false,false,false],"id":25,"left_children":[1,3,5,7,9,11,13,15,-1,-1,-1,-1,-1,-1,17,-1,-1,-1,-1],"loss_changes":[1.6399918E0,1.0300751E0,6.199726E-1,1.9890579E0,2.4902344E-1,5.4465556E-1,9.531873E-1,3.0551457E-1,0E0,0E0,0E0,0E0,0E0,0E0,1.2543867E0,0E0,0E0,0E0,0E0],"parents":[2147483647,0,0,1,1,2,2,3,3,4,4,5,5,6,6,7,7,14,14],"right_children":[2,4,6,8,10,12,14,16,-1,-1,-1,-1,-1,-1,18,-1,-1,-1,-1],"split_conditions":[1.0145812E0,-9.6848375E-1,1.3181243E0,-1.1324489E0,-1.5518848E0,1.1430651E0,1.7116063E0,-1.377658E0,1.3870846E-2,-1.0832344E-2,-2.9737053E-2,-8.150757E-3,1.4575855E-2,-2.8348692E-2,2.0376341E0,-2.9276842E-2,-8.198147E-3,1.4674188E-2,-1.7623616E-2],"split_indices":[0,1,0,1,0,0,0,1,0,0,0,0,0,0,0,0,0,0,0],"split_type":[0,0,0,0,0,0,0,0,0,0,0,0,0,0,0,0,0,0,0],"sum_hessian":[4.2175034E1,3.5977066E1,6.197969E0,5.551527E0,3.0425539E1,2.2054603E0,3.9925084E0,4.0826483E0,1.4688785E0,2.2371418E0,2.8188398E1,1.0623686E0,1.1430917E0,1.3199077E0,2.6726007E0,1.7256333E0,2.3570151E0,1.4607162E0,1.2118846E0],"tree_param":{"num_deleted":"0","num_feature":"2","num_nodes":"19","size_leaf_vector":"0"}},{"base_weights":[-7.5186753E-1,-4.07177E-1,-8.855131E-1,-5.1520824E-1,4.0944785E-1,-9.9222493E-1,-3.5268965E-1,-1.0069275E0,-3.3088022E-1,5.5023277E-1,-6.658257E-1,-1.0445323E-1,-6.983417E-1,-8.3192796E-1,-5.1741734E-2],"categories":[],"categories_nodes":[],"categories_segments":[],"categories_sizes":[],"default_left":[true,true,true,true,false,false,true,false,true,false,true,false,false,false,false],"id":26,"left_children":[1,3,5,7,-1,-1,9,-1,11,-1,13,-1,-1,-1,-1],"loss_changes":[1.6107903E0,1.4290767E0,1.3550167E0,8.122399E-1,0E0,0E0,2.219676E0,0E0,8.157562E-1,0E0,4.9954557E-1,0E0,0E0,0E0,0E0],"parents":[2147483647,0,0,1,1,2,2,3,3,6,6,8,8,10,10],"right_children":[2,4,6,8,-1,-1,10,-1,12,-1,14,-1,-1,-1,-1],"split_conditions":[-5.696496E-1,-6.420306E-1,9.503516E-1,-1.377658E0,1.2740973E-2,-3.087551E-2,1.0581845E0,-3.1333018E-2,-8.1338155E-1,1.712184E-2,8.395218E-1,-3.250318E-3,-2.1730615E-2,-2.5887476E-2,-1.6100708E-3],"split_indices":[1,1,1,1,0,0,1,0,1,0,0,0,0,0,0],"split_type":[0,0,0,0,0,0,0,0,0,0,0,0,0,0,0],"sum_hessian":[4.179371E1,1.2807663E1,2.8986046E1,1.163727E1,1.1703928E0,2.3431145E1,5.5549006E0,1.9561875E0,9.681083E0,1.2354202E0,4.3194804E0,6.7846737E0,2.8964083E0,3.1206393E0,1.1988412E0],"tree_param":{"num_deleted":"0","num_feature":"2","num_nodes":"15","size_leaf_vector":"0"}},{"base_weights":[-7.3760223E-1,-8.1862146E-1,-2.239974E-1,-3.4318614E-1,-8.926805E-1,1.5641527E-1,-4.2340392E-1,-6.585711E-1,4.3935478E-1,-3.239002E-1,-9.251258E-1,-2.4750097E-1,4.6997243E-1,-7.750218E-1,7.9504095E-2,-9.1559607E-1,-2.558865E-1],"categories":[],"categories_nodes":[],"categories_segments":[],"categories_sizes":[],"default_left":[true,true,true,true,true,true,true,true,false,false,false,false,false,false,false,false,false],"id":27,"left_children":[1,3,5,7,9,11,13,15,-1,-1,-1,-1,-1,-1,-1,-1,-1],"loss_changes":[1.5804386E0,9.6949196E-1,6.0876E-1,1.8955798E0,2.673912E-1,5.2032405E-1,9.390831E-1,2.8723216E-1,0E0,0E0,0E0,0E0,0E0,0E0,0E0,0E0,0E0],"parents":[2147483647,0,0,1,1,2,2,3,3,4,4,5,5,6,6,7,7],"right_children":[2,4,6,8,10,12,14,16,-1,-1,-1,-1,-1,-1,-1,-1,-1],"split_conditions":[1.0145812E0,-9.6848375E-1,1.3181243E0,-1.1324489E0,-1.5518848E0,1.1430651E0,1.8031511E0,-1.377658E0,1.36716E-2,-1.0078948E-2,-2.8787555E-2,-7.701599E-3,1.4624344E-2,-2.4116702E-2,2.4739648E-3,-2.8491015E-2,-7.962535E-3],"split_indices":[0,1,0,1,0,0,0,1,0,0,0,0,0,0,0,0,0],"split_type":[0,0,0,0,0,0,0,0,0,0,0,0,0,0,0,0,0],"sum_hessian":[4.1387146E1,3.5235073E1,6.1520734E0,5.5081944E0,2.9726877E1,2.1899152E0,3.9621582E0,4.0388494E0,1.4693452E0,2.1969132E0,2.7529964E1,1.0491258E0,1.1407895E0,2.0133824E0,1.948776E0,1.6878204E0,2.351029E0],"tree_param":{"num_deleted":"0","num_feature":"2","num_nodes":"17","size_leaf_vector":"0"}},{"base_weights":[-7.230282E-1,-4.0560126E-1,-8.655769E-1,-5.687838E-1,2.918099E-1,-9.8181E-1,-3.263925E-1,-8.318394E-2,-1.027449E0,-1.65442E-1,6.1968064E-1,5.563068E-1,-6.40574E-1,-4.984563E-1,5.9458935E-1,-3.0665538E-1,-1.1378338E0,-8.055137E-1,-4.4215977E-2],"categories":[],"categories_nodes":[],"categories_segments":[],"categories_sizes":[],"default_left":[true,true,true,true,true,false,true,true,true,false,false,false,true,false,false,false,false,false,false],"id":28,"left_children":[1,3,5,7,9,-1,11,13,15,-1,-1,-1,17,-1,-1,-1,-1,-1,-1],"loss_changes":[1.5497742E0,1.8617401E0,1.4411259E0,2.679532E0,6.2518704E-1,0E0,2.1542127E0,2.2998598E0,1.5202379E-1,0E0,0E0,0E0,4.8038173E-1,0E0,0E0,0E0,0E0,0E0,0E0],"parents":[2147483647,0,0,1,1,2,2,3,3,4,4,6,6,7,7,8,8,12,12],"right_children":[2,4,6,8,10,-1,12,14,16,-1,-1,-1,18,-1,-1,-1,-1,-1,-1],"split_conditions":[-4.3375057E-1,1.1430651E0,9.503516E-1,1.4410272E-1,-8.281532E-1,-3.0551422E-2,1.0581845E0,-3.344998E-1,-1.1738094E0,-5.1481333E-3,1.9282881E-2,1.7310848E-2,8.395218E-1,-1.55106895E-2,1.8502105E-2,-9.542334E-3,-3.540649E-2,-2.5065532E-2,-1.3758885E-3],"split_indices":[1,0,1,0,1,0,1,0,1,0,0,0,0,0,0,0,0,0,0],"split_type":[0,0,0,0,0,0,0,0,0,0,0,0,0,0,0,0,0,0,0],"sum_hessian":[4.1008938E1,1.3900564E1,2.7108372E1,1.1414255E1,2.4863095E0,2.1625586E1,5.482788E0,6.1181664E0,5.296088E0,1.2451774E0,1.241132E0,1.2369361E0,4.245852E0,3.9577916E0,2.1603749E0,1.2050936E0,4.090995E0,3.0512269E0,1.194625E0],"tree_param":{"num_deleted":"0","num_feature":"2","num_nodes":"19","size_leaf_vector":"0"}},{"base_weights":[-7.096301E-1,-3.9703628E-1,-8.5100144E-1,-5.5805075E-1,2.8691036E-1,-9.6647877E-1,-3.1946674E-1,-8.032598E-2,-1.0134026E0,-1.6261168E-1,6.0932356E-1,5.4730076E-1,-6.297776E-1,-4.87518E-1,5.8141464E-1,-3.021452E-1,-1.123019E0,-7.932395E-1,-4.3472193E-2],"categories":[],"categories_nodes":[],"categories_segments":[],"categories_sizes":[],"default_left":[true,true,true,true,true,false,true,true,true,false,false,false,true,false,false,false,false,false,false],"id":29,"left_children":[1,3,5,7,9,-1,11,13,15,-1,-1,-1,17,-1,-1,-1,-1,-1,-1],"loss_changes":[1.4993725E0,1.7923326E0,1.3947258E0,2.6022334E0,6.0414267E-1,0E0,2.0787237E0,2.1983442E0,1.4642191E-1,0E0,0E0,0E0,4.650643E-1,0E0,0E0,0E0,0E0,0E0,0E0],"parents":[2147483647,0,0,1,1,2,2,3,3,4,4,6,6,7,7,8,8,12,12],"right_children":[2,4,6,8,10,-1,12,14,16,-1,-1,-1,18,-1,-1,-1,-1,-1,-1],"split_conditions":[-4.3375057E-1,1.1430651E0,9.503516E-1,1.4410272E-1,-8.281532E-1,-3.0074354E-2,1.0581845E0,-3.344998E-1,-1.1738094E0,-5.060061E-3,1.8960595E-2,1.7030604E-2,8.395218E-1,-1.5170317E-2,1.809214E-2,-9.401988E-3,-3.4945488E-2,-2.468359E-2,-1.3527438E-3],"split_indices":[1,0,1,0,1,0,1,0,1,0,0,0,0,0,0,0,0,0,0],"split_type":[0,0,0,0,0,0,0,0,0,0,0,0,0,0,0,0,0,0,0],"sum_hessian":[4.0574482E1,1.3821499E1,2.6752983E1,1.1336692E1,2.484807E0,2.1305933E1,5.4470496E0,6.106531E0,5.2301607E0,1.2448404E0,1.2399666E0,1.2346575E0,4.212392E0,3.9433377E0,2.1631935E0,1.2000296E0,4.030131E0,3.018022E0,1.19437E0],"tree_param":{"num_deleted":"0","num_feature":"2","num_nodes":"19","size_leaf_vector":"0"}},{"base_weights":[-6.965566E-1,-7.764465E-1,-2.0122035E-1,-4.4511276E-1,-8.890292E-1,1.8241641E-1,-4.0627262E-1,-4.6516405E-3,-9.28968E-1,-2.8295302E-1,-9.326853E-1,-2.1413068E-1,4.72345E-1,-8.645743E-1,-1.012673E-2,-4.4300544E-1,6.969966E-1,-2.9770556E-1,-1.0433187E0,-1.0656664E0,-6.884681E-1,4.7562322E-1,-5.470999E-1],"categories":[],"categories_nodes":[],"categories_segments":[],"categories_sizes":[],"default_left":[true,true,true,true,true,true,true,true,true,false,true,false,false,false,true,false,false,false,false,false,false,false,false],"id":30,"left_children":[1,3,5,7,9,11,13,15,17,-1,19,-1,-1,-1,21,-1,-1,-1,-1,-1,-1,-1,-1],"loss_changes":[1.4718304E0,9.127712E-1,6.29783E-1,2.3184385E0,4.023018E-1,4.633656E-1,8.8324946E-1,2.372662E0,6.393671E-2,0E0,1.4955521E-2,0E0,0E0,0E0,1.2115117E0,0E0,0E0,0E0,0E0,0E0,0E0,0E0,0E0],"parents":[2147483647,0,0,1,1,2,2,3,3,4,4,5,5,6,6,7,7,8,8,10,10,14,14],"right_children":[2,4,6,8,10,12,14,16,18,-1,20,-1,-1,-1,22,-1,-1,-1,-1,-1,-1,-1,-1],"split_conditions":[1.0145812E0,-5.696496E-1,1.3181243E0,1.4410272E-1,-1.5518848E0,1.1430651E0,1.7116063E0,-3.344998E-1,-1.1738094E0,-8.804777E-3,3.4914604E-1,-6.663201E-3,1.4698172E-2,-2.6903348E-2,2.0376341E0,-1.37852E-2,2.1688757E-2,-9.263838E-3,-3.246542E-2,-3.3160824E-2,-2.1423372E-2,1.4800182E-2,-1.7024353E-2],"split_indices":[0,1,0,0,0,0,0,0,1,0,1,0,0,0,0,0,0,0,0,0,0,0,0],"split_type":[0,0,0,0,0,0,0,0,0,0,0,0,0,0,0,0,0,0,0,0,0,0,0],"sum_hessian":[4.0141556E1,3.407783E1,6.063726E0,9.898866E0,2.4178965E1,2.1505697E0,3.9131565E0,5.7103014E0,4.1885643E0,2.127291E0,2.2051674E1,1.0186952E0,1.1318744E0,1.2660255E0,2.647131E0,3.7414546E0,1.9688468E0,1.1950188E0,2.9935458E0,1.20996E1,9.952075E0,1.4498433E0,1.1972877E0],"tree_param":{"num_deleted":"0","num_feature":"2","num_nodes":"23","size_leaf_vector":"0"}},{"base_weights":[-6.841609E-1,-3.8005078E-1,-8.23457E-1,-5.3875655E-1,2.8449646E-1,-9.392436E-1,-3.0057627E-1,-7.473359E-2,-9.883538E-1,-1.5539387E-1,5.982312E-1,5.495819E-1,-6.112868E-1,-4.6658945E-1,5.575904E-1,-2.933351E-1,-1.0969481E0,-7.7131593E-1,-4.3430846E-2],"categories":[],"categories_nodes":[],"categories_segments":[],"categories_sizes":[],"default_left":[true,true,true,true,true,false,true,true,true,false,false,false,true,false,false,false,false,false,false],"id":31,"left_children":[1,3,5,7,9,-1,11,13,15,-1,-1,-1,17,-1,-1,-1,-1,-1,-1],"loss_changes":[1.4138794E0,1.6997726E0,1.3584614E0,2.4676032E0,5.733969E-1,0E0,2.0222816E0,2.0136201E0,1.3903332E-1,0E0,0E0,0E0,4.3437755E-1,0E0,0E0,0E0,0E0,0E0,0E0],"parents":[2147483647,0,0,1,1,2,2,3,3,4,4,6,6,7,7,8,8,12,12],"right_children":[2,4,6,8,10,-1,12,14,16,-1,-1,-1,18,-1,-1,-1,-1,-1,-1],"split_conditions":[-4.3375057E-1,1.1430651E0,9.503516E-1,1.4410272E-1,-8.281532E-1,-2.9226867E-2,1.0581845E0,-3.344998E-1,-1.1738094E0,-4.835461E-3,1.861543E-2,1.7101588E-2,8.395218E-1,-1.4519074E-2,1.7350793E-2,-9.12784E-3,-3.4134228E-2,-2.4001386E-2,-1.3514572E-3],"split_indices":[1,0,1,0,1,0,1,0,1,0,0,0,0,0,0,0,0,0,0],"split_type":[0,0,0,0,0,0,0,0,0,0,0,0,0,0,0,0,0,0,0],"sum_hessian":[3.9764427E1,1.3663267E1,2.6101162E1,1.1182075E1,2.4811924E0,2.0717253E1,5.383909E0,6.076661E0,5.1054134E0,1.243028E0,1.2381642E0,1.2352526E0,4.148657E0,3.9135249E0,2.1631362E0,1.1900611E0,3.9153523E0,2.957032E0,1.1916249E0],"tree_param":{"num_deleted":"0","num_feature":"2","num_nodes":"19","size_leaf_vector":"0"}},{"base_weights":[-6.716486E-1,-7.505497E-1,-1.8970063E-1,-4.272977E-1,-8.6186475E-1,1.9312292E-1,-3.9638445E-1,-3.815461E-4,-9.0412587E-1,-2.60845E-1,-9.061556E-1,-1.9673252E-1,4.690677E-1,-8.4710884E-1,-9.4114775E-3,-4.2300612E-1,6.709542E-1,-2.8903252E-1,-1.016803E0,-1.040446E0,-6.629938E-1,4.6682698E-1,-5.373079E-1],"categories":[],"categories_nodes":[],"categories_segments":[],"categories_sizes":[],"default_left":[true,true,true,true,true,true,true,true,true,false,true,false,false,false,true,false,false,false,false,false,false,false,false],"id":32,"left_children":[1,3,5,7,9,11,13,15,17,-1,19,-1,-1,-1,21,-1,-1,-1,-1,-1,-1,-1,-1],"loss_changes":[1.3914547E0,8.6678314E-1,6.3142806E-1,2.1931334E0,4.17099E-1,4.2912212E-1,8.43482E-1,2.1806805E0,5.886078E-2,0E0,4.3577194E-2,0E0,0E0,0E0,1.1653978E0,0E0,0E0,0E0,0E0,0E0,0E0,0E0,0E0],"parents":[2147483647,0,0,1,1,2,2,3,3,4,4,5,5,6,6,7,7,8,8,10,10,14,14],"right_children":[2,4,6,8,10,12,14,16,18,-1,20,-1,-1,-1,22,-1,-1,-1,-1,-1,-1,-1,-1],"split_conditions":[1.0145812E0,-5.696496E-1,1.3181243E0,1.4410272E-1,-1.5518848E0,1.1430651E0,1.7116063E0,-3.344998E-1,-1.1738094E0,-8.116831E-3,3.4914604E-1,-6.1218143E-3,1.459619E-2,-2.6359867E-2,2.0376341E0,-1.3162872E-2,2.0878386E-2,-8.993955E-3,-3.1640317E-2,-3.237603E-2,-2.0630676E-2,1.4526465E-2,-1.6719652E-2],"split_indices":[0,1,0,0,0,0,0,0,1,0,1,0,0,0,0,0,0,0,0,0,0,0,0],"split_type":[0,0,0,0,0,0,0,0,0,0,0,0,0,0,0,0,0,0,0,0,0,0,0],"sum_hessian":[3.9336277E1,3.3323475E1,6.0128036E0,9.775287E0,2.3548187E1,2.1311185E0,3.8816848E0,5.6856146E0,4.089672E0,2.0890791E0,2.1459108E1,1.0022274E0,1.1288911E0,1.2438517E0,2.637833E0,3.7161183E0,1.9694961E0,1.1851568E0,2.9045153E0,1.1712081E1,9.747028E0,1.4475867E0,1.1902466E0],"tree_param":{"num_deleted":"0","num_feature":"2","num_nodes":"23","size_leaf_vector":"0"}},{"base_weights":[-6.597923E-1,-7.378009E-1,-1.8703228E-1,-4.1947865E-1,-8.480304E-1,1.8980546E-1,-3.9097056E-1,7.7415537E-4,-8.925194E-1,-9.2561704E-1,-4.2218176E-1,4.5884825E-2,2.4576445E-1,-7.278055E-1,8.099362E-2,-4.137203E-1,6.5716076E-1,-2.8479663E-1,-1.0045252E0,5.5141675E-1,-8.264423E-1],"categories":[],"categories_nodes":[],"categories_segments":[],"categories_sizes":[],"default_left":[true,true,true,true,true,true,true,true,true,false,true,false,false,false,false,false,false,false,false,false,false],"id":33,"left_children":[1,3,5,7,9,11,13,15,17,-1,19,-1,-1,-1,-1,-1,-1,-1,-1,-1,-1],"loss_changes":[1.3358631E0,8.3602715E-1,6.121664E-1,2.1307824E0,4.1042328E-1,1.3940781E-2,8.3295214E-1,2.0874453E0,5.709791E-2,0E0,2.6502712E0,0E0,0E0,0E0,0E0,0E0,0E0,0E0,0E0,0E0,0E0],"parents":[2147483647,0,0,1,1,2,2,3,3,4,4,5,5,6,6,7,7,8,8,10,10],"right_children":[2,4,6,8,10,12,14,16,18,-1,20,-1,-1,-1,-1,-1,-1,-1,-1,-1,-1],"split_conditions":[1.0145812E0,-5.696496E-1,1.3181243E0,1.4410272E-1,9.503516E-1,-3.968215E-1,1.8031511E0,-3.344998E-1,-1.1738094E0,-2.8802842E-2,1.0581845E0,1.4278188E-3,7.6475632E-3,-2.2647452E-2,2.520315E-3,-1.2873922E-2,2.0449167E-2,-8.862145E-3,-3.1258263E-2,1.7158683E-2,-2.5716778E-2],"split_indices":[0,1,0,0,1,1,0,0,1,0,1,0,0,0,0,0,0,0,0,0,0],"split_type":[0,0,0,0,0,0,0,0,0,0,0,0,0,0,0,0,0,0,0,0,0],"sum_hessian":[3.8964256E1,3.2964302E1,5.999955E0,9.714923E0,2.324938E1,2.131206E0,3.868749E0,5.673187E0,4.0417366E0,1.86736E1,4.57578E0,1.1061856E0,1.0250206E0,1.9412358E0,1.9275132E0,3.7039316E0,1.9692552E0,1.1803064E0,2.8614302E0,1.2357224E0,3.3400578E0],"tree_param":{"num_deleted":"0","num_feature":"2","num_nodes":"21","size_leaf_vector":"0"}},{"base_weights":[-6.479673E-1,-3.558563E-1,-7.8444123E-1,-5.127096E-1,2.8596348E-1,-9.0059876E-1,-2.7377072E-1,-6.714634E-2,-9.5461625E-1,-1.4146206E-1,5.8622056E-1,5.425129E-1,-5.807959E-1,-4.371547E-1,5.245148E-1,-2.8062618E-1,-1.0623432E0,-7.38091E-1,-3.6971744E-2],"categories":[],"categories_nodes":[],"categories_segments":[],"categories_sizes":[],"default_left":[true,true,true,true,true,false,true,true,true,false,false,false,true,false,false,false,false,false,false],"id":34,"left_children":[1,3,5,7,9,-1,11,13,15,-1,-1,-1,17,-1,-1,-1,-1,-1,-1],"loss_changes":[1.2979679E0,1.5990702E0,1.3036194E0,2.2892613E0,5.289564E-1,0E0,1.8888566E0,1.7676739E0,1.3208008E-1,0E0,0E0,0E0,4.0436244E-1,0E0,0E0,0E0,0E0,0E0,0E0],"parents":[2147483647,0,0,1,1,2,2,3,3,4,4,6,6,7,7,8,8,12,12],"right_children":[2,4,6,8,10,-1,12,14,16,-1,-1,-1,18,-1,-1,-1,-1,-1,-1],"split_conditions":[-4.3375057E-1,1.1430651E0,9.503516E-1,1.4410272E-1,-8.281532E-1,-2.8024338E-2,1.0581845E0,-3.344998E-1,-1.1738094E0,-4.4019385E-3,1.8241689E-2,1.6881619E-2,8.395218E-1,-1.360314E-2,1.6321562E-2,-8.732371E-3,-3.3057414E-2,-2.296751E-2,-1.1504664E-3],"split_indices":[1,0,1,0,1,0,1,0,1,0,0,0,0,0,0,0,0,0,0],"split_type":[0,0,0,0,0,0,0,0,0,0,0,0,0,0,0,0,0,0,0],"sum_hessian":[3.8560898E1,1.342765E1,2.5133245E1,1.0952218E1,2.4754324E0,1.9853739E1,5.2795067E0,6.027146E0,4.9250717E0,1.2396352E0,1.235797E0,1.2333686E0,4.0461383E0,3.8688285E0,2.1583176E0,1.17551E0,3.7495618E0,2.861312E0,1.1848263E0],"tree_param":{"num_deleted":"0","num_feature":"2","num_nodes":"19","size_leaf_vector":"0"}},{"base_weights":[-6.362004E-1,-7.136662E-1,-1.7496577E-1,-4.029772E-1,-8.2284194E-1,1.9983819E-1,-3.8016185E-1,4.5910142E-3,-8.69447E-1,-2.2292951E-1,-8.687532E-1,5.2790593E-2,2.5367996E-1,-8.21829E-1,-5.9015993E-3,-8.068018E-1,3.1530985E-1,-2.765201E-1,-9.8015636E-1,-1.0052392E0,-6.2633544E-1,4.643523E-1,-5.292746E-1],"categories":[],"categories_nodes":[],"categories_segments":[],"categories_sizes":[],"default_left":[true,true,true,true,true,true,true,true,true,false,true,false,false,false,true,false,false,false,false,false,false,false,false],"id":35,"left_children":[1,3,5,7,9,11,13,15,17,-1,19,-1,-1,-1,21,-1,-1,-1,-1,-1,-1,-1,-1],"loss_changes":[1.2737026E0,7.941818E-1,6.1075884E-1,2.0173144E0,4.5632076E-1,1.1274695E-2,7.948716E-1,1.9300736E0,5.3460836E-2,0E0,8.4280014E-2,0E0,0E0,0E0,1.1382195E0,0E0,0E0,0E0,0E0,0E0,0E0,0E0,0E0],"parents":[2147483647,0,0,1,1,2,2,3,3,4,4,5,5,6,6,7,7,8,8,10,10,14,14],"right_children":[2,4,6,8,10,12,14,16,18,-1,20,-1,-1,-1,22,-1,-1,-1,-1,-1,-1,-1,-1],"split_conditions":[1.0145812E0,-5.696496E-1,1.3181243E0,1.4410272E-1,-1.5518848E0,-3.968215E-1,1.7116063E0,-1.301341E0,-1.1738094E0,-6.936998E-3,3.4914604E-1,1.6427087E-3,7.893873E-3,-2.5573224E-2,2.0376341E0,-2.5105614E-2,9.811639E-3,-8.604601E-3,-3.0499967E-2,-3.1280484E-2,-1.9489963E-2,1.444946E-2,-1.6469676E-2],"split_indices":[0,1,0,0,0,1,0,0,1,0,1,0,0,0,0,0,0,0,0,0,0,0,0],"split_type":[0,0,0,0,0,0,0,0,0,0,0,0,0,0,0,0,0,0,0,0,0,0,0],"sum_hessian":[3.8142822E1,3.2189243E1,5.9535794E0,9.589842E0,2.2599401E1,2.1155326E0,3.8380468E0,5.6464944E0,3.9433477E0,2.0228548E0,2.0576546E1,1.0978001E0,1.0177325E0,1.2119454E0,2.6261013E0,1.1214473E0,4.525047E0,1.170768E0,2.7725797E0,1.1151376E1,9.425171E0,1.4426453E0,1.1834561E0],"tree_param":{"num_deleted":"0","num_feature":"2","num_nodes":"23","size_leaf_vector":"0"}},{"base_weights":[-6.254189E-1,-7.021412E-1,-1.7238533E-1,-3.9755732E-1,-8.09722E-1,-3.3323488E-1,2.7781293E-1,2.1273487E-3,-8.5865635E-1,-2.1881743E-1,-8.5537547E-1,1.01941854E-1,-8.398346E-1,-3.946833E-1,6.267048E-1,-2.72477E-1,-9.688601E-1,-9.9301314E-1,-6.1361825E-1,-2.4363792E-1,4.0631676E-1],"categories":[],"categories_nodes":[],"categories_segments":[],"categories_sizes":[],"default_left":[true,true,true,true,true,true,false,true,true,false,true,true,false,false,false,false,false,false,false,false,false],"id":36,"left_children":[1,3,5,7,9,11,-1,13,15,-1,17,19,-1,-1,-1,-1,-1,-1,-1,-1,-1],"loss_changes":[1.2273741E0,7.545204E-1,5.9541076E-1,1.9441136E0,4.417038E-1,1.3137194E0,0E0,1.8937496E0,5.228758E-2,0E0,9.92918E-2,5.079892E-1,0E0,0E0,0E0,0E0,0E0,0E0,0E0,0E0,0E0],"parents":[2147483647,0,0,1,1,2,2,3,3,4,4,5,5,7,7,8,8,10,10,11,11],"right_children":[2,4,6,8,10,12,-1,14,16,-1,18,20,-1,-1,-1,-1,-1,-1,-1,-1,-1],"split_conditions":[1.0145812E0,-5.696496E-1,3.8459796E-1,1.4410272E-1,-1.5518848E0,-4.3375057E-1,8.64483E-3,-3.344998E-1,-1.1738094E0,-6.8090404E-3,3.4914604E-1,-8.281532E-1,-2.6133511E-2,-1.2281538E-2,1.9501455E-2,-8.47879E-3,-3.0148456E-2,-3.0900037E-2,-1.9094236E-2,-7.581391E-3,1.2643541E-2],"split_indices":[0,1,1,0,0,1,0,0,1,0,1,1,0,0,0,0,0,0,0,0,0],"split_type":[0,0,0,0,0,0,0,0,0,0,0,0,0,0,0,0,0,0,0,0,0],"sum_hessian":[3.7794563E1,3.1850706E1,5.943859E0,9.539056E0,2.231165E1,4.570638E0,1.3732208E0,5.6430216E0,3.8960342E0,2.0156465E0,2.0296003E1,2.8883095E0,1.6823286E0,3.6757803E0,1.9672414E0,1.16608E0,2.7299542E0,1.0952837E1,9.343167E0,1.4460484E0,1.4422611E0],"tree_param":{"num_deleted":"0","num_feature":"2","num_nodes":"21","size_leaf_vector":"0"}},{"base_weights":[-6.1446697E-1,-6.90354E-1,-1.6937004E-1,-3.904767E-1,-7.968309E-1,2.01333E-1,-3.7375942E-1,3.145285E-3,-8.4810495E-1,-2.1477889E-1,-8.4223264E-1,5.3176664E-2,2.5552088E-1,-6.994771E-1,7.797129E-2,-7.9215634E-1,3.062158E-1,-2.6849598E-1,-9.578489E-1,-9.8104566E-1,-6.011373E-1],"categories":[],"categories_nodes":[],"categories_segments":[],"categories_sizes":[],"default_left":[true,true,true,true,true,true,true,true,true,false,true,false,false,false,false,false,false,false,false,false,false],"id":37,"left_children":[1,3,5,7,9,11,13,15,17,-1,19,-1,-1,-1,-1,-1,-1,-1,-1,-1,-1],"loss_changes":[1.1810923E0,7.2678185E-1,5.997672E-1,1.8901937E0,4.2764187E-1,1.1382252E-2,7.626254E-1,1.8405006E0,5.126071E-2,0E0,1.13708496E-1,0E0,0E0,0E0,0E0,0E0,0E0,0E0,0E0,0E0,0E0],"parents":[2147483647,0,0,1,1,2,2,3,3,4,4,5,5,6,6,7,7,8,8,10,10],"right_children":[2,4,6,8,10,12,14,16,18,-1,20,-1,-1,-1,-1,-1,-1,-1,-1,-1,-1],"split_conditions":[1.0145812E0,-5.696496E-1,1.3181243E0,1.4410272E-1,-1.5518848E0,-3.968215E-1,1.8031511E0,-1.301341E0,-1.1738094E0,-6.6833715E-3,3.4914604E-1,1.6547221E-3,7.951158E-3,-2.1765944E-2,2.4262676E-3,-2.4649886E-2,9.528655E-3,-8.354911E-3,-2.9805817E-2,-3.052764E-2,-1.870586E-2],"split_indices":[0,1,0,0,0,1,0,0,1,0,1,0,0,0,0,0,0,0,0,0,0],"split_type":[0,0,0,0,0,0,0,0,0,0,0,0,0,0,0,0,0,0,0,0,0],"sum_hessian":[3.742897E1,3.1506277E1,5.9226947E0,9.47854E0,2.2027737E1,2.1102562E0,3.8124387E0,5.6295204E0,3.8490198E0,2.0085616E0,2.0019175E1,1.0957313E0,1.0145249E0,1.8965236E0,1.9159151E0,1.1080542E0,4.5214663E0,1.1614465E0,2.6875732E0,1.0756752E1,9.2624235E0],"tree_param":{"num_deleted":"0","num_feature":"2","num_nodes":"21","size_leaf_vector":"0"}},{"base_weights":[-6.038905E-1,-6.7927915E-1,-1.6572842E-1,-3.8535076E-1,-7.841575E-1,1.9792846E-1,-3.6708632E-1,7.4646174E-4,-8.377814E-1,-8.643543E-1,-3.6833188E-1,5.230156E-2,2.5112078E-1,-7.995579E-1,-4.535372E-3,-3.3663094E-1,7.049369E-1,-2.6457596E-1,-9.4710773E-1,-8.927424E-1,-2.80536E-1,5.6354946E-1,-7.791135E-1,4.609124E-1,-5.2317435E-1],"categories":[],"categories_nodes":[],"categories_segments":[],"categories_sizes":[],"default_left":[true,true,true,true,true,true,true,true,true,true,true,false,false,false,true,false,false,false,false,false,false,false,false,false,false],"id":38,"left_children":[1,3,5,7,9,11,13,15,17,19,21,-1,-1,-1,23,-1,-1,-1,-1,-1,-1,-1,-1,-1,-1],"loss_changes":[1.145628E0,6.896944E-1,5.7895535E-1,1.8221804E0,4.402218E-1,1.0986008E-2,7.490574E-1,1.811371E0,5.036378E-2,5.3302765E-2,2.5140085E0,0E0,0E0,0E0,1.1142907E0,0E0,0E0,0E0,0E0,0E0,0E0,0E0,0E0,0E0,0E0],"parents":[2147483647,0,0,1,1,2,2,3,3,4,4,5,5,6,6,7,7,8,8,9,9,10,10,14,14],"right_children":[2,4,6,8,10,12,14,16,18,20,22,-1,-1,-1,24,-1,-1,-1,-1,-1,-1,-1,-1,-1,-1],"split_conditions":[1.0145812E0,-5.696496E-1,1.3181243E0,1.4410272E-1,9.503516E-1,-3.968215E-1,1.7116063E0,-1.3213766E-1,-1.1738094E0,7.1103793E-1,1.0581845E0,1.6274912E-3,7.814238E-3,-2.4880204E-2,2.0376341E0,-1.0475096E-2,2.193584E-2,-8.232929E-3,-2.9471578E-2,-2.7779868E-2,-8.729565E-3,1.7536223E-2,-2.4244025E-2,1.4342419E-2,-1.6279852E-2],"split_indices":[0,1,0,0,1,1,0,0,1,0,1,0,0,0,0,0,0,0,0,0,0,0,0,0,0],"split_type":[0,0,0,0,0,0,0,0,0,0,0,0,0,0,0,0,0,0,0,0,0,0,0,0,0],"sum_hessian":[3.70899E1,3.1175634E1,5.9142675E0,9.427822E0,2.1747812E1,2.1137745E0,3.8004928E0,5.625478E0,3.8023443E0,1.732738E1,4.4204316E0,1.0961235E0,1.0176511E0,1.1834447E0,2.6170483E0,4.156203E0,1.4692749E0,1.156867E0,2.6454773E0,1.6019299E1,1.3080807E0,1.2386311E0,3.1818006E0,1.4379116E0,1.1791365E0],"tree_param":{"num_deleted":"0","num_feature":"2","num_nodes":"25","size_leaf_vector":"0"}},{"base_weights":[-5.9340096E-1,-3.2176137E-1,-7.242358E-1,-4.771704E-1,2.9128945E-1,-8.4307754E-1,-2.272057E-1,-6.1242826E-2,-9.056396E-1,-1.1744074E-1,5.696539E-1,-9.3892616E-1,-5.4994893E-1,5.5439097E-1,-5.382335E-1,-4.0843597E-1,4.902906E-1,-2.607157E-1,-1.0131799E0,-2.3786251E-1,-1.0539145E0,3.5681626E-1,-7.543501E-1,-1.721087E-1,-8.474505E-1],"categories":[],"categories_nodes":[],"categories_segments":[],"categories_sizes":[],"default_left":[true,true,true,true,true,true,true,true,true,false,false,true,true,false,true,false,false,false,false,false,false,false,false,false,false],"id":39,"left_children":[1,3,5,7,9,11,13,15,17,-1,-1,19,21,-1,23,-1,-1,-1,-1,-1,-1,-1,-1,-1,-1],"loss_changes":[1.1072378E0,1.4784105E0,1.2646523E0,2.0108237E0,4.6102965E-1,3.2266617E-2,1.7876346E0,1.5322287E0,1.2691689E-1,0E0,0E0,8.2159805E-1,1.6083677E0,0E0,4.077108E-1,0E0,0E0,0E0,0E0,0E0,0E0,0E0,0E0,0E0,0E0],"parents":[2147483647,0,0,1,1,2,2,3,3,4,4,5,5,6,6,7,7,8,8,11,11,12,12,14,14],"right_children":[2,4,6,8,10,12,14,16,18,-1,-1,20,22,-1,24,-1,-1,-1,-1,-1,-1,-1,-1,-1,-1],"split_conditions":[-4.3375057E-1,1.1430651E0,9.503516E-1,1.4410272E-1,-8.281532E-1,3.4914604E-1,1.0581845E0,-3.344998E-1,-1.1738094E0,-3.6544562E-3,1.7726177E-2,-8.484354E-1,4.3186718E-1,1.7251233E-2,2.4171748E0,-1.2709486E-2,1.5256594E-2,-8.112808E-3,-3.1527575E-2,-7.401675E-3,-3.2795135E-2,1.1103212E-2,-2.3473453E-2,-5.355584E-3,-2.63705E-2],"split_indices":[1,0,1,0,1,1,1,0,1,0,0,0,1,0,1,0,0,0,0,0,0,0,0,0,0],"split_type":[0,0,0,0,0,0,0,0,0,0,0,0,0,0,0,0,0,0,0,0,0,0,0,0,0],"sum_hessian":[3.6711662E1,1.30586195E1,2.3653044E1,1.0594539E1,2.4640803E0,1.852695E1,5.1260934E0,5.9559035E0,4.6386356E0,1.2324883E0,1.2315922E0,1.2301445E1,6.2255054E0,1.2364672E0,3.8896263E0,3.8142607E0,2.1416428E0,1.152342E0,3.4862936E0,2.1657615E0,1.0135684E1,1.0080268E0,5.2174783E0,2.4936473E0,1.3959789E0],"tree_param":{"num_deleted":"0","num_feature":"2","num_nodes":"25","size_leaf_vector":"0"}},{"base_weights":[-5.832184E-1,-6.5834045E-1,-1.5365957E-1,-3.70061E-1,-7.626156E-1,2.0884596E-1,-3.5696903E-1,4.944275E-3,-8.17068E-1,-1.9050747E-1,-8.0884326E-1,5.913375E-2,2.6043877E-1,-7.8430873E-1,-1.952024E-3,-4.776037E-1,4.834588E-1,-2.5691426E-1,-9.2554843E-1,-9.4818795E-1,-5.71693E-1,4.5595065E-1,-5.143398E-1],"categories":[],"categories_nodes":[],"categories_segments":[],"categories_sizes":[],"default_left":[true,true,true,true,true,true,true,true,true,false,true,false,false,false,true,false,false,false,false,false,false,false,false],"id":40,"left_children":[1,3,5,7,9,11,13,15,17,-1,19,-1,-1,-1,21,-1,-1,-1,-1,-1,-1,-1,-1],"loss_changes":[1.1037655E0,6.6400146E-1,5.8032334E-1,1.7313069E0,4.3232536E-1,8.518696E-3,7.2149646E-1,1.7542559E0,4.8223257E-2,0E0,1.2569046E-1,0E0,0E0,0E0,1.0804859E0,0E0,0E0,0E0,0E0,0E0,0E0,0E0,0E0],"parents":[2147483647,0,0,1,1,2,2,3,3,4,4,5,5,6,6,7,7,8,8,10,10,14,14],"right_children":[2,4,6,8,10,12,14,16,18,-1,20,-1,-1,-1,22,-1,-1,-1,-1,-1,-1,-1,-1],"split_conditions":[1.0145812E0,-5.696496E-1,1.3181243E0,1.4410272E-1,-1.5518848E0,-3.968215E-1,1.7116063E0,-1.0467734E0,-1.1738094E0,-5.9281066E-3,3.4914604E-1,1.8400915E-3,8.10419E-3,-2.4405688E-2,2.0376341E0,-1.486181E-2,1.5044005E-2,-7.994517E-3,-2.8800707E-2,-2.9505191E-2,-1.7789628E-2,1.4188021E-2,-1.6004944E-2],"split_indices":[0,1,0,0,0,1,0,1,1,0,1,0,0,0,0,0,0,0,0,0,0,0,0],"split_type":[0,0,0,0,0,0,0,0,0,0,0,0,0,0,0,0,0,0,0,0,0,0,0],"sum_hessian":[3.6339653E1,3.0477154E1,5.8624997E0,9.304048E0,2.1173107E1,2.096737E0,3.7657628E0,5.597285E0,3.7067626E0,1.9657894E0,1.9207317E1,1.08742E0,1.0093169E0,1.1601077E0,2.6056552E0,2.7878447E0,2.8094404E0,1.1478711E0,2.5588915E0,1.0209918E1,8.997398E0,1.4341509E0,1.1715043E0],"tree_param":{"num_deleted":"0","num_feature":"2","num_nodes":"23","size_leaf_vector":"0"}},{"base_weights":[-5.7302254E-1,-6.4732933E-1,-1.514952E-1,-2.5607735E-1,-7.1615976E-1,-3.1146264E-1,2.8421727E-1,-5.6793475E-1,4.7201037E-1,-1.8697616E-1,-7.5160074E-1,1.085542E-1,-8.1377333E-1,-8.7104905E-1,-1.4697997E-1,-4.2470118E-1,-7.96477E-1,-2.200988E-1,3.9253423E-1],"categories":[],"categories_nodes":[],"categories_segments":[],"categories_sizes":[],"default_left":[true,true,true,true,true,true,false,true,false,false,true,true,false,false,false,false,false,false,false],"id":41,"left_children":[1,3,5,7,9,11,-1,13,-1,-1,15,17,-1,-1,-1,-1,-1,-1,-1],"loss_changes":[1.0613031E0,6.557913E-1,5.6614506E-1,1.6800432E0,3.4602547E-1,1.2464997E0,0E0,4.854095E-1,0E0,0E0,1.35746E-2,4.477671E-1,0E0,0E0,0E0,0E0,0E0,0E0,0E0],"parents":[2147483647,0,0,1,1,2,2,3,3,4,4,5,5,7,7,10,10,11,11],"right_children":[2,4,6,8,10,12,-1,14,-1,-1,16,18,-1,-1,-1,-1,-1,-1,-1],"split_conditions":[1.0145812E0,-9.6848375E-1,3.8459796E-1,-1.1324489E0,-1.5518848E0,-4.3375057E-1,8.844117E-3,-1.377658E0,1.468776E-2,-5.8182217E-3,-5.696496E-1,-8.281532E-1,-2.532255E-2,-2.7104825E-2,-4.573642E-3,-1.3215618E-2,-2.4784334E-2,-6.848913E-3,1.2214664E-2],"split_indices":[0,1,1,1,0,1,0,1,0,0,1,1,0,0,0,0,0,0,0],"split_type":[0,0,0,0,0,0,0,0,0,0,0,0,0,0,0,0,0,0,0],"sum_hessian":[3.6014164E1,3.0161606E1,5.85256E0,5.21851E0,2.4943096E1,4.4894633E0,1.3630964E0,3.8075917E0,1.4109186E0,1.9595748E0,2.298352E1,2.871932E0,1.6175313E0,1.592016E0,2.2155757E0,4.03736E0,1.8946161E1,1.4355291E0,1.4364029E0],"tree_param":{"num_deleted":"0","num_feature":"2","num_nodes":"19","size_leaf_vector":"0"}},{"base_weights":[-5.622292E-1,-6.3552636E-1,-1.488979E-1,-2.5171688E-1,-7.0347464E-1,2.0983826E-1,-3.514833E-1,-5.593921E-1,4.6326175E-1,-1.835083E-1,-7.385858E-1,5.9234545E-2,2.6179186E-1,-6.664439E-1,7.822869E-2,-8.606094E-1,-1.4396377E-1,-4.1577485E-1,-7.833462E-1],"categories":[],"categories_nodes":[],"categories_segments":[],"categories_sizes":[],"default_left":[true,true,true,true,true,true,true,true,false,false,true,false,false,false,false,false,false,false,false],"id":42,"left_children":[1,3,5,7,9,11,13,15,-1,-1,17,-1,-1,-1,-1,-1,-1,-1,-1],"loss_changes":[1.0168037E0,6.27573E-1,5.702447E-1,1.6225698E0,3.3285904E-1,8.684188E-3,6.936441E-1,4.7502232E-1,0E0,0E0,1.6787529E-2,0E0,0E0,0E0,0E0,0E0,0E0,0E0,0E0],"parents":[2147483647,0,0,1,1,2,2,3,3,4,4,5,5,6,6,7,7,10,10],"right_children":[2,4,6,8,10,12,14,16,-1,-1,18,-1,-1,-1,-1,-1,-1,-1,-1],"split_conditions":[1.0145812E0,-9.6848375E-1,1.3181243E0,-1.1324489E0,-1.5518848E0,-3.968215E-1,1.8031511E0,-1.377658E0,1.4415525E-2,-5.710311E-3,-5.696496E-1,1.843228E-3,8.146295E-3,-2.0738035E-2,2.4342774E-3,-2.677997E-2,-4.4797854E-3,-1.2937853E-2,-2.4375737E-2],"split_indices":[0,1,0,1,0,1,0,1,0,0,1,0,0,0,0,0,0,0,0],"split_type":[0,0,0,0,0,0,0,0,0,0,0,0,0,0,0,0,0,0,0],"sum_hessian":[3.5685757E1,2.9854078E1,5.8316765E0,5.197915E0,2.4656164E1,2.091777E0,3.7398992E0,3.7862124E0,1.4117025E0,1.9534707E0,2.2702692E1,1.0854383E0,1.0063388E0,1.8402015E0,1.8996977E0,1.5736073E0,2.2126052E0,4.0174932E0,1.86852E1],"tree_param":{"num_deleted":"0","num_feature":"2","num_nodes":"19","size_leaf_vector":"0"}},{"base_weights":[-5.513647E-1,-6.2392515E-1,-1.4567713E-1,-2.474693E-1,-6.9098264E-1,2.0629326E-1,-3.452972E-1,-5.510251E-1,4.5469972E-1,-7.5267273E-1,-3.122176E-1,5.826281E-2,2.572901E-1,-7.640269E-1,-1.0412346E-3,-8.504129E-1,-1.4100887E-1,-4.9362877E-1,-8.933492E-1,5.8046657E-1,-7.323706E-1,4.5229748E-1,-5.086941E-1],"categories":[],"categories_nodes":[],"categories_segments":[],"categories_sizes":[],"default_left":[true,true,true,true,true,true,true,true,false,true,true,false,false,false,true,false,false,false,false,false,false,false,false],"id":43,"left_children":[1,3,5,7,9,11,13,15,-1,17,19,-1,-1,-1,21,-1,-1,-1,-1,-1,-1,-1,-1],"loss_changes":[9.798708E-1,6.0024834E-1,5.5065084E-1,1.5672117E0,3.578968E-1,8.3770305E-3,6.807538E-1,4.649917E-1,0E0,3.283472E-1,2.3989882E0,0E0,0E0,0E0,1.0576915E0,0E0,0E0,0E0,0E0,0E0,0E0,0E0,0E0],"parents":[2147483647,0,0,1,1,2,2,3,3,4,4,5,5,6,6,7,7,9,9,10,10,14,14],"right_children":[2,4,6,8,10,12,14,16,-1,18,20,-1,-1,-1,22,-1,-1,-1,-1,-1,-1,-1,-1],"split_conditions":[1.0145812E0,-9.6848375E-1,1.3181243E0,-1.1324489E0,9.503516E-1,-3.968215E-1,1.7116063E0,-1.377658E0,1.4149096E-2,-1.2502342E-1,1.0581845E0,1.81299E-3,8.006211E-3,-2.3774568E-2,2.0376341E0,-2.6462682E-2,-4.3878364E-3,-1.5360469E-2,-2.7798748E-2,1.806264E-2,-2.2789506E-2,1.4074344E-2,-1.5829263E-2],"split_indices":[0,1,0,1,1,1,0,1,0,1,1,0,0,0,0,0,0,0,0,0,0,0,0],"split_type":[0,0,0,0,0,0,0,0,0,0,0,0,0,0,0,0,0,0,0,0,0,0,0],"sum_hessian":[3.537488E1,2.9551428E1,5.823455E0,5.1772294E0,2.4374199E1,2.0954049E0,3.7280502E0,3.764881E0,1.4123485E0,2.0111439E1,4.26276E0,1.0858747E0,1.0095301E0,1.1319121E0,2.5961382E0,1.5552005E0,2.2096803E0,8.664834E0,1.1446605E1,1.2421175E0,3.0206425E0,1.4290369E0,1.1671014E0],"tree_param":{"num_deleted":"0","num_feature":"2","num_nodes":"23","size_leaf_vector":"0"}},{"base_weights":[-5.415206E-1,-2.8842422E-1,-6.677092E-1,-4.4130862E-1,2.9583678E-1,-7.9099226E-1,-1.7760707E-1,-3.9378785E-2,-8.703117E-1,-9.53444E-2,5.53729E-1,-8.92644E-1,-4.9162906E-1,5.709464E-1,-4.9458608E-1,-3.8504982E-1,4.9964938E-1,-2.2167446E-1,-9.849489E-1,-1.9198155E-1,-1.0136366E0,-9.0349585E-1,-1.6972452E-2,-1.2972853E-1,-8.142721E-1],"categories":[],"categories_nodes":[],"categories_segments":[],"categories_sizes":[],"default_left":[true,true,true,true,true,true,true,true,true,false,false,true,true,false,true,false,false,false,false,false,false,false,false,false,false],"id":44,"left_children":[1,3,5,7,9,11,13,15,17,-1,-1,19,21,-1,23,-1,-1,-1,-1,-1,-1,-1,-1,-1,-1],"loss_changes":[9.5844173E-1,1.3588402E0,1.2666464E0,1.9142168E0,4.0090075E-1,1.18593216E-1,1.6989889E0,1.474613E0,1.8457985E-1,0E0,0E0,8.6075974E-1,1.3276043E0,0E0,4.4607937E-1,0E0,0E0,0E0,0E0,0E0,0E0,0E0,0E0,0E0,0E0],"parents":[2147483647,0,0,1,1,2,2,3,3,4,4,5,5,6,6,7,7,8,8,11,11,12,12,14,14],"right_children":[2,4,6,8,10,12,14,16,18,-1,-1,20,22,-1,24,-1,-1,-1,-1,-1,-1,-1,-1,-1,-1],"split_conditions":[-4.3375057E-1,1.1430651E0,9.503516E-1,1.4410272E-1,-8.281532E-1,3.4914604E-1,1.0581845E0,-3.344998E-1,-1.1738094E0,-2.9668747E-3,1.7230636E-2,-8.484354E-1,1.7461765E-1,1.7766396E-2,2.4171748E0,-1.19817685E-2,1.5547815E-2,-6.897944E-3,-3.0649098E-2,-5.9739766E-3,-3.1541787E-2,-2.8114486E-2,-5.2813947E-4,-4.036821E-3,-2.5338072E-2],"split_indices":[1,0,1,0,1,1,1,0,1,0,0,0,0,0,1,0,0,0,0,0,0,0,0,0,0],"split_type":[0,0,0,0,0,0,0,0,0,0,0,0,0,0,0,0,0,0,0,0,0,0,0,0,0],"sum_hessian":[3.503951E1,1.2750832E1,2.2288677E1,1.0300228E1,2.4506035E0,1.7318378E1,4.9702973E0,5.881595E0,4.4186325E0,1.2241133E0,1.2264901E0,1.1448961E1,5.869418E0,1.2402366E0,3.7300606E0,3.7575753E0,2.1240199E0,1.1042571E0,3.3143754E0,2.0668201E0,9.382141E0,2.6588345E0,3.2105834E0,2.3984783E0,1.3315824E0],"tree_param":{"num_deleted":"0","num_feature":"2","num_nodes":"25","size_leaf_vector":"0"}},{"base_weights":[-5.3250855E-1,-6.044037E-1,-1.3655388E-1,-3.352393E-1,-7.05391E-1,2.147997E-1,-3.3794135E-1,2.3414854E-2,-7.792874E-1,-7.883321E-1,-3.0444825E-1,6.46268E-2,2.6329276E-1,-7.5134414E-1,-2.9729435E-4,-7.4997056E-1,3.1035447E-1,-2.1846294E-1,-8.9558613E-1,-8.1906635E-1,-2.142319E-1,5.6163067E-1,-7.1651334E-1,4.4723412E-1,-5.0235265E-1],"categories":[],"categories_nodes":[],"categories_segments":[],"categories_sizes":[],"default_left":[true,true,true,true,true,true,true,true,true,true,true,false,false,false,true,false,false,false,false,false,false,false,false,false,false],"id":45,"left_children":[1,3,5,7,9,11,13,15,17,19,21,-1,-1,-1,23,-1,-1,-1,-1,-1,-1,-1,-1,-1,-1],"loss_changes":[9.3377113E-1,5.7689476E-1,5.521949E-1,1.6219032E0,4.5346642E-1,5.4207146E-3,6.5541804E-1,1.6843377E0,9.96964E-2,1.1830807E-1,2.2594802E0,0E0,0E0,0E0,1.0303625E0,0E0,0E0,0E0,0E0,0E0,0E0,0E0,0E0,0E0,0E0],"parents":[2147483647,0,0,1,1,2,2,3,3,4,4,5,5,6,6,7,7,8,8,9,9,10,10,14,14],"right_children":[2,4,6,8,10,12,14,16,18,20,22,-1,-1,-1,24,-1,-1,-1,-1,-1,-1,-1,-1,-1,-1],"split_conditions":[1.0145812E0,-5.696496E-1,1.3181243E0,1.4410272E-1,9.503516E-1,-3.968215E-1,1.7116063E0,-1.301341E0,-1.1738094E0,7.1103793E-1,1.0581845E0,2.0110211E-3,8.192999E-3,-2.3379914E-2,2.0376341E0,-2.3337172E-2,9.65744E-3,-6.79801E-3,-2.7868357E-2,-2.5487257E-2,-6.66635E-3,1.7476514E-2,-2.2296067E-2,1.3916786E-2,-1.5631935E-2],"split_indices":[0,1,0,0,1,1,0,0,1,0,1,0,0,0,0,0,0,0,0,0,0,0,0,0,0],"split_type":[0,0,0,0,0,0,0,0,0,0,0,0,0,0,0,0,0,0,0,0,0,0,0,0,0],"sum_hessian":[3.470094E1,2.8922853E1,5.778085E0,9.069441E0,1.9853413E1,2.0809417E0,3.6971438E0,5.5411596E0,3.5282812E0,1.5649815E1,4.2035975E0,1.0773416E0,1.0036001E0,1.1112736E0,2.58587E0,1.0628319E0,4.4783278E0,1.100385E0,2.4278965E0,1.4449566E1,1.2002482E0,1.238194E0,2.9654036E0,1.4249053E0,1.1609647E0],"tree_param":{"num_deleted":"0","num_feature":"2","num_nodes":"25","size_leaf_vector":"0"}},{"base_weights":[-5.2378416E-1,-2.775617E-1,-6.480333E-1,-9.0289795E-1,-1.0844508E-1,-7.701233E-1,-1.6985035E-1,-2.7805004E-1,4.3498155E-1,-8.7328494E-1,-4.710131E-1,5.525127E-1,-4.7900337E-1,1.6543421E-1,-7.068885E-1,-1.7317127E-1,-9.97092E-1,-8.8614637E-1,-2.964447E-3,-1.17090546E-1,-8.0047464E-1],"categories":[],"categories_nodes":[],"categories_segments":[],"categories_sizes":[],"default_left":[true,true,true,false,true,true,true,true,false,true,true,false,true,false,false,false,false,false,false,false,false],"id":46,"left_children":[1,3,5,-1,7,9,11,13,-1,15,17,-1,19,-1,-1,-1,-1,-1,-1,-1,-1],"loss_changes":[9.0206814E-1,1.341425E0,1.1976881E0,0E0,1.2130849E0,1.3928509E-1,1.5847493E0,1.9504856E0,0E0,8.759098E-1,1.3083313E0,0E0,4.5020628E-1,0E0,0E0,0E0,0E0,0E0,0E0,0E0,0E0],"parents":[2147483647,0,0,1,1,2,2,4,4,5,5,6,6,7,7,9,9,10,10,12,12],"right_children":[2,4,6,-1,8,10,12,14,-1,16,18,-1,20,-1,-1,-1,-1,-1,-1,-1,-1],"split_conditions":[-4.3375057E-1,-1.377658E0,9.503516E-1,-2.8095882E-2,1.1430651E0,3.4914604E-1,1.0581845E0,2.5255118E-2,1.3535517E-2,-8.484354E-1,1.7461765E-1,1.7192787E-2,2.4171748E0,5.1478907E-3,-2.1996567E-2,-5.3886482E-3,-3.1026961E-2,-2.7574616E-2,-9.224603E-5,-3.6435593E-3,-2.490873E-2],"split_indices":[1,1,1,0,0,1,1,0,0,0,0,0,1,0,0,0,0,0,0,0,0],"split_type":[0,0,0,0,0,0,0,0,0,0,0,0,0,0,0,0,0,0,0,0,0],"sum_hessian":[3.4365604E1,1.2610167E1,2.175544E1,1.7607177E0,1.0849448E1,1.6844238E1,4.9112015E0,8.640929E0,2.208519E0,1.1097244E1,5.746993E0,1.2359992E0,3.6752024E0,4.5498843E0,4.0910454E0,2.0279813E0,9.069263E0,2.572261E0,3.174732E0,2.370605E0,1.3045973E0],"tree_param":{"num_deleted":"0","num_feature":"2","num_nodes":"21","size_leaf_vector":"0"}},{"base_weights":[-5.1523095E-1,-5.863438E-1,-1.2920927E-1,-3.8747793E-1,-7.2908604E-1,2.2061849E-1,-3.315392E-1,-3.90128E-2,-8.067561E-1,-1.0227127E0,-4.6573275E-1,-7.384254E-1,-1.0183365E-3,-2.1894099E-1,5.98391E-1,-2.0279464E-1,-8.9018834E-1,3.026254E-1,-5.9119964E-1,4.4114614E-1,-4.9715498E-1],"categories":[],"categories_nodes":[],"categories_segments":[],"categories_sizes":[],"default_left":[true,true,true,true,true,false,true,true,true,false,true,false,true,false,false,false,false,false,false,false,false],"id":47,"left_children":[1,3,5,7,9,-1,11,13,15,-1,17,-1,19,-1,-1,-1,-1,-1,-1,-1,-1],"loss_changes":[8.8639736E-1,5.496416E-1,5.498574E-1,2.070021E0,7.556124E-1,0E0,6.2684244E-1,1.1524067E0,1.4588165E-1,0E0,1.1655769E0,0E0,1.0038774E0,0E0,0E0,0E0,0E0,0E0,0E0,0E0,0E0],"parents":[2147483647,0,0,1,1,2,2,3,3,4,4,6,6,7,7,8,8,10,10,12,12],"right_children":[2,4,6,8,10,-1,12,14,16,-1,18,-1,20,-1,-1,-1,-1,-1,-1,-1,-1],"split_conditions":[1.0145812E0,-1.2502342E-1,1.3181243E0,2.5255118E-2,3.4914604E-1,6.8650846E-3,1.7116063E0,-9.519854E-2,-1.1738094E0,-3.1824213E-2,4.3777585E-1,-2.2977915E-2,2.0376341E0,-6.8128854E-3,1.8620402E-2,-6.3104522E-3,-2.770039E-2,9.41693E-3,-1.8396625E-2,1.3727343E-2,-1.5470196E-2],"split_indices":[0,1,0,0,1,0,0,0,1,0,1,0,0,0,0,0,0,0,0,0,0],"split_type":[0,0,0,0,0,0,0,0,0,0,0,0,0,0,0,0,0,0,0,0,0],"sum_hessian":[3.404988E1,2.8314795E1,5.735087E0,1.3383571E1,1.4931223E1,2.0684152E0,3.6666718E0,7.9059367E0,5.4776344E0,5.696483E0,9.23474E0,1.0903165E0,2.5763555E0,6.677503E0,1.2284335E0,1.0812414E0,4.396393E0,1.0980846E0,8.136655E0,1.4208816E0,1.1554737E0],"tree_param":{"num_deleted":"0","num_feature":"2","num_nodes":"21","size_leaf_vector":"0"}},{"base_weights":[-5.0574803E-1,-2.6511782E-1,-6.2862074E-1,-8.883789E-1,-9.751851E-2,-7.5148666E-1,-1.5636884E-1,-2.635735E-1,4.2725152E-1,-8.547487E-1,-4.5627367E-1,5.531393E-1,-4.6546143E-1,1.6258545E-1,-6.8366385E-1,-1.5787262E-1,-9.8106545E-1,-8.728166E-1,4.7600633E-3,-1.0663679E-1,-7.881057E-1],"categories":[],"categories_nodes":[],"categories_segments":[],"categories_sizes":[],"default_left":[true,true,true,false,true,true,true,true,false,true,true,false,true,false,false,false,false,false,false,false,false],"id":48,"left_children":[1,3,5,-1,7,9,11,13,-1,15,17,-1,19,-1,-1,-1,-1,-1,-1,-1,-1],"loss_changes":[8.61186E-1,1.3214821E0,1.1754417E0,0E0,1.1362339E0,1.4103508E-1,1.543299E0,1.8193489E0,0E0,8.803692E-1,1.283009E0,0E0,4.5165086E-1,0E0,0E0,0E0,0E0,0E0,0E0,0E0,0E0],"parents":[2147483647,0,0,1,1,2,2,4,4,5,5,6,6,7,7,9,9,10,10,12,12],"right_children":[2,4,6,-1,8,10,12,14,-1,16,18,-1,20,-1,-1,-1,-1,-1,-1,-1,-1],"split_conditions":[-4.3375057E-1,-1.377658E0,9.503516E-1,-2.7644087E-2,1.1430651E0,3.4914604E-1,1.0581845E0,2.5255118E-2,1.3294978E-2,-8.484354E-1,1.7461765E-1,1.7212285E-2,2.4171748E0,5.0592446E-3,-2.1273876E-2,-4.9125934E-3,-3.0528255E-2,-2.7159829E-2,1.4812103E-4,-3.318265E-3,-2.4523841E-2],"split_indices":[1,1,1,0,0,1,1,0,0,0,0,0,1,0,0,0,0,0,0,0,0],"split_type":[0,0,0,0,0,0,0,0,0,0,0,0,0,0,0,0,0,0,0,0,0],"sum_hessian":[3.3763363E1,1.2480192E1,2.1283169E1,1.7334183E0,1.0746774E1,1.6419914E1,4.8632565E0,8.541644E0,2.2051296E0,1.0760613E1,5.6593003E0,1.2361563E0,3.6271E0,4.5444846E0,3.9971592E0,1.9964154E0,8.764197E0,2.5038786E0,3.1554217E0,2.3472006E0,1.2798995E0],"tree_param":{"num_deleted":"0","num_feature":"2","num_nodes":"21","size_leaf_vector":"0"}},{"base_weights":[-4.9750376E-1,-2.6038727E-1,-6.19301E-1,-8.778101E-1,-9.510063E-2,-7.414396E-1,-1.5387447E-1,-2.5819334E-1,4.1822425E-1,-8.444391E-1,-4.4912106E-1,5.441995E-1,-4.5880875E-1,1.1212369E-1,-7.343543E-1,-1.5491658E-1,-9.714128E-1,-8.642534E-1,4.647241E-3,-1.044209E-1,-7.793359E-1],"categories":[],"categories_nodes":[],"categories_segments":[],"categories_sizes":[],"default_left":[true,true,true,false,true,true,true,true,false,true,true,false,true,false,false,false,false,false,false,false,false],"id":49,"left_children":[1,3,5,-1,7,9,11,13,-1,15,17,-1,19,-1,-1,-1,-1,-1,-1,-1,-1],"loss_changes":[8.3385277E-1,1.2858816E0,1.13871E0,0E0,1.0880235E0,1.384697E-1,1.4934698E0,1.7578329E0,0E0,8.632622E-1,1.2503524E0,0E0,4.4218445E-1,0E0,0E0,0E0,0E0,0E0,0E0,0E0,0E0],"parents":[2147483647,0,0,1,1,2,2,4,4,5,5,6,6,7,7,9,9,10,10,12,12],"right_children":[2,4,6,-1,8,10,12,14,-1,16,18,-1,20,-1,-1,-1,-1,-1,-1,-1,-1],"split_conditions":[-4.3375057E-1,-1.377658E0,9.503516E-1,-2.7315212E-2,1.1430651E0,3.4914604E-1,1.0581845E0,1.4410272E-1,1.3014073E-2,-8.484354E-1,1.7461765E-1,1.6934102E-2,2.4171748E0,3.4890033E-3,-2.2851234E-2,-4.820609E-3,-3.0227888E-2,-2.6893362E-2,1.446103E-4,-3.2493123E-3,-2.4250947E-2],"split_indices":[1,1,1,0,0,1,1,0,0,0,0,0,1,0,0,0,0,0,0,0,0],"split_type":[0,0,0,0,0,0,0,0,0,0,0,0,0,0,0,0,0,0,0,0,0],"sum_hessian":[3.3456566E1,1.2418312E1,2.1038252E1,1.7120752E0,1.0706236E1,1.6195223E1,4.84303E0,8.502009E0,2.2042267E0,1.0578934E1,5.6162887E0,1.2338289E0,3.609201E0,5.212613E0,3.2893965E0,1.9903784E0,8.588555E0,2.4605904E0,3.155698E0,2.343695E0,1.2655059E0],"tree_param":{"num_deleted":"0","num_feature":"2","num_nodes":"21","size_leaf_vector":"0"}},{"base_weights":[-4.8954925E-1,-5.593391E-1,-1.1747679E-1,-3.6047938E-1,-7.044054E-1,2.3417528E-1,-3.234973E-1,-2.4396712E-2,-7.754325E-1,-1.0009462E0,-4.457398E-1,-7.217849E-1,-2.0893596E-3,-2.6989424E-1,4.2689666E-1,-1.7537783E-1,-8.6233234E-1,3.0665743E-1,-5.7201254E-1,4.3727532E-1,-4.9469313E-1],"categories":[],"categories_nodes":[],"categories_segments":[],"categories_sizes":[],"default_left":[true,true,true,true,true,false,true,true,true,false,true,false,true,false,false,false,false,false,false,false,false],"id":50,"left_children":[1,3,5,7,9,-1,11,13,15,-1,17,-1,19,-1,-1,-1,-1,-1,-1,-1,-1],"loss_changes":[8.211088E-1,5.680065E-1,5.5825406E-1,1.942689E0,7.370906E-1,0E0,5.898475E-1,1.0906236E0,1.7528963E-1,0E0,1.1294763E0,0E0,9.866851E-1,0E0,0E0,0E0,0E0,0E0,0E0,0E0,0E0],"parents":[2147483647,0,0,1,1,2,2,3,3,4,4,6,6,7,7,8,8,10,10,12,12],"right_children":[2,4,6,8,10,-1,12,14,16,-1,18,-1,20,-1,-1,-1,-1,-1,-1,-1,-1],"split_conditions":[1.0145812E0,-1.2502342E-1,1.3181243E0,2.5255118E-2,3.4914604E-1,7.2869374E-3,1.7116063E0,-3.3128768E-1,-1.1738094E0,-3.1146893E-2,4.3777585E-1,-2.2460105E-2,2.0376341E0,-8.398421E-3,1.3283935E-2,-5.457311E-3,-2.6833585E-2,9.542397E-3,-1.7799571E-2,1.3606893E-2,-1.5393589E-2],"split_indices":[0,1,0,0,1,0,0,0,1,0,1,0,0,0,0,0,0,0,0,0,0],"split_type":[0,0,0,0,0,0,0,0,0,0,0,0,0,0,0,0,0,0,0,0,0],"sum_hessian":[3.315188E1,2.7491901E1,5.659978E0,1.3065876E1,1.4426024E1,2.0404744E0,3.6195035E0,7.8039904E0,5.2618856E0,5.3840094E0,9.042016E0,1.0601151E0,2.5593882E0,5.314777E0,2.4892135E0,1.0474266E0,4.214459E0,1.0941259E0,7.94789E0,1.4121644E0,1.1472238E0],"tree_param":{"num_deleted":"0","num_feature":"2","num_nodes":"21","size_leaf_vector":"0"}},{"base_weights":[-4.806209E-1,-2.489255E-1,-6.0094297E-1,-8.655007E-1,-8.476543E-2,-7.2383213E-1,-1.411234E-1,-2.4442297E-1,4.108279E-1,-8.270058E-1,-4.3509716E-1,5.446481E-1,-4.4595435E-1,1.14207394E-1,-7.157205E-1,-1.3971388E-1,-9.5666885E-1,-8.516024E-1,1.1814337E-2,-9.4566904E-2,-7.67684E-1],"categories":[],"categories_nodes":[],"categories_segments":[],"categories_sizes":[],"default_left":[true,true,true,false,true,true,true,true,false,true,true,false,true,false,false,false,false,false,false,false,false],"id":51,"left_children":[1,3,5,-1,7,9,11,13,-1,15,17,-1,19,-1,-1,-1,-1,-1,-1,-1,-1],"loss_changes":[7.950773E-1,1.2717592E0,1.1181808E0,0E0,1.0185668E0,1.4062595E-1,1.4546479E0,1.6711168E0,0E0,8.703847E-1,1.2260878E0,0E0,4.4322503E-1,0E0,0E0,0E0,0E0,0E0,0E0,0E0,0E0],"parents":[2147483647,0,0,1,1,2,2,4,4,5,5,6,6,7,7,9,9,10,10,12,12],"right_children":[2,4,6,-1,8,10,12,14,-1,16,18,-1,20,-1,-1,-1,-1,-1,-1,-1,-1],"split_conditions":[-4.3375057E-1,-1.377658E0,9.503516E-1,-2.6932174E-2,1.1430651E0,3.4914604E-1,1.0581845E0,1.4410272E-1,1.2783917E-2,-8.484354E-1,1.7461765E-1,1.6948061E-2,2.4171748E0,3.553843E-3,-2.2271397E-2,-4.34754E-3,-2.9769097E-2,-2.6499694E-2,3.6763205E-4,-2.9426808E-3,-2.3888368E-2],"split_indices":[1,1,1,0,0,1,1,0,0,0,0,0,1,0,0,0,0,0,0,0,0],"split_type":[0,0,0,0,0,0,0,0,0,0,0,0,0,0,0,0,0,0,0,0,0],"sum_hessian":[3.288566E1,1.2289498E1,2.0596159E1,1.6857244E0,1.0603774E1,1.5799498E1,4.7966623E0,8.403393E0,2.200382E0,1.0266669E1,5.532828E0,1.2339501E0,3.5627122E0,5.2023654E0,3.2010272E0,1.9592077E0,8.307462E0,2.3951283E0,3.1376998E0,2.3213296E0,1.2413827E0],"tree_param":{"num_deleted":"0","num_feature":"2","num_nodes":"21","size_leaf_vector":"0"}},{"base_weights":[-4.729462E-1,-5.4156435E-1,-1.1147316E-1,-3.4431505E-1,-6.8702114E-1,2.3801512E-1,-3.178473E-1,-1.6979836E-2,-7.5592965E-1,-9.865598E-1,-4.3114775E-1,-6.1087406E-1,7.203787E-2,-4.4358456E-1,2.4812117E-1,-1.6082673E-1,-8.446016E-1,3.0540866E-1,-5.5724627E-1],"categories":[],"categories_nodes":[],"categories_segments":[],"categories_sizes":[],"default_left":[true,true,true,true,true,false,true,true,true,false,true,false,false,false,false,false,false,false,false],"id":52,"left_children":[1,3,5,7,9,-1,11,13,15,-1,17,-1,-1,-1,-1,-1,-1,-1,-1],"loss_changes":[7.727871E-1,5.659971E-1,5.529974E-1,1.8568919E0,7.3158216E-1,0E0,5.6831956E-1,1.0999485E0,1.8733072E-1,0E0,1.0912744E0,0E0,0E0,0E0,0E0,0E0,0E0,0E0,0E0],"parents":[2147483647,0,0,1,1,2,2,3,3,4,4,6,6,7,7,8,8,10,10],"right_children":[2,4,6,8,10,-1,12,14,16,-1,18,-1,-1,-1,-1,-1,-1,-1,-1],"split_conditions":[1.0145812E0,-1.2502342E-1,1.3181243E0,2.5255118E-2,3.4914604E-1,7.4064233E-3,1.8031511E0,-1.0467734E0,-1.1738094E0,-3.0699225E-2,4.3777585E-1,-1.9008843E-2,2.2416348E-3,-1.380322E-2,7.7208984E-3,-5.0045177E-3,-2.6281847E-2,9.503539E-3,-1.7340083E-2],"split_indices":[0,1,0,0,1,0,0,1,1,0,1,0,0,0,0,0,0,0,0],"split_type":[0,0,0,0,0,0,0,0,0,0,0,0,0,0,0,0,0,0,0],"sum_hessian":[3.259017E1,2.69719E1,5.61827E0,1.2876976E1,1.4094924E1,2.0289638E0,3.589306E0,7.752821E0,5.124155E0,5.1778316E0,8.917093E0,1.7255934E0,1.8637125E0,2.7132883E0,5.0395327E0,1.0293846E0,4.0947704E0,1.095597E0,7.821496E0],"tree_param":{"num_deleted":"0","num_feature":"2","num_nodes":"19","size_leaf_vector":"0"}},{"base_weights":[-4.6414176E-1,-2.3737904E-1,-5.8324206E-1,-8.514064E-1,-7.504903E-2,-7.074186E-1,-1.2704423E-1,-2.3117812E-1,4.032824E-1,-8.1071025E-1,-4.2213243E-1,5.448513E-1,-4.3123016E-1,1.1568578E-1,-6.9764674E-1,-1.2962371E-1,-9.4242144E-1,-8.393603E-1,1.7465679E-2,-8.4313035E-2,-7.5312257E-1],"categories":[],"categories_nodes":[],"categories_segments":[],"categories_sizes":[],"default_left":[true,true,true,false,true,true,true,true,false,true,true,false,true,false,false,false,false,false,false,false,false],"id":53,"left_children":[1,3,5,-1,7,9,11,13,-1,15,17,-1,19,-1,-1,-1,-1,-1,-1,-1,-1],"loss_changes":[7.62341E-1,1.2490013E0,1.1100421E0,0E0,9.531377E-1,1.4194584E-1,1.4103303E0,1.5881286E0,0E0,8.62525E-1,1.1983944E0,0E0,4.4090265E-1,0E0,0E0,0E0,0E0,0E0,0E0,0E0,0E0],"parents":[2147483647,0,0,1,1,2,2,4,4,5,5,6,6,7,7,9,9,10,10,12,12],"right_children":[2,4,6,-1,8,10,12,14,-1,16,18,-1,20,-1,-1,-1,-1,-1,-1,-1,-1],"split_conditions":[-4.3375057E-1,-1.377658E0,9.503516E-1,-2.6493596E-2,1.1430651E0,3.4914604E-1,1.0581845E0,1.4410272E-1,1.254912E-2,-8.484354E-1,1.7461765E-1,1.6954383E-2,2.4171748E0,3.5998467E-3,-2.1708988E-2,-4.0335595E-3,-2.9325752E-2,-2.6118752E-2,5.434874E-4,-2.6236067E-3,-2.3435254E-2],"split_indices":[1,1,1,0,0,1,1,0,0,0,0,0,1,0,0,0,0,0,0,0,0],"split_type":[0,0,0,0,0,0,0,0,0,0,0,0,0,0,0,0,0,0,0,0,0],"sum_hessian":[3.235333E1,1.2171784E1,2.0181545E1,1.6574451E0,1.0514339E1,1.5430654E1,4.750892E0,8.316503E0,2.197837E0,9.97671E0,5.4539433E0,1.2340049E0,3.5168874E0,5.201034E0,3.1154683E0,1.9382182E0,8.038492E0,2.3316064E0,3.1223369E0,2.3000042E0,1.2168832E0],"tree_param":{"num_deleted":"0","num_feature":"2","num_nodes":"21","size_leaf_vector":"0"}},{"base_weights":[-4.5673847E-1,-2.3355845E-1,-5.745768E-1,-8.416725E-1,-7.348862E-2,-6.979487E-1,-1.2511735E-1,-2.2691086E-1,3.9482227E-1,-8.009331E-1,-4.1558844E-1,5.3608364E-1,-4.2519438E-1,1.1260656E-1,-6.8827564E-1,-1.2717927E-1,-9.3335176E-1,-8.3136207E-1,1.7049793E-2,-8.255475E-2,-7.450317E-1],"categories":[],"categories_nodes":[],"categories_segments":[],"categories_sizes":[],"default_left":[true,true,true,false,true,true,true,true,false,true,true,false,true,false,false,false,false,false,false,false,false],"id":54,"left_children":[1,3,5,-1,7,9,11,13,-1,15,17,-1,19,-1,-1,-1,-1,-1,-1,-1,-1],"loss_changes":[7.3542976E-1,1.2143841E0,1.0746813E0,0E0,9.140384E-1,1.3891411E-1,1.3651716E0,1.5308502E0,0E0,8.457036E-1,1.1679928E0,0E0,4.3165934E-1,0E0,0E0,0E0,0E0,0E0,0E0,0E0,0E0],"parents":[2147483647,0,0,1,1,2,2,4,4,5,5,6,6,7,7,9,9,10,10,12,12],"right_children":[2,4,6,-1,8,10,12,14,-1,16,18,-1,20,-1,-1,-1,-1,-1,-1,-1,-1],"split_conditions":[-4.3375057E-1,-1.377658E0,9.503516E-1,-2.6190702E-2,1.1430651E0,3.4914604E-1,1.0581845E0,1.4410272E-1,1.2285862E-2,-8.484354E-1,1.7461765E-1,1.6681556E-2,2.4171748E0,3.5040292E-3,-2.1417383E-2,-3.9574946E-3,-2.9043527E-2,-2.5869869E-2,5.3054607E-4,-2.5688934E-3,-2.3183487E-2],"split_indices":[1,1,1,0,0,1,1,0,0,0,0,0,1,0,0,0,0,0,0,0,0],"split_type":[0,0,0,0,0,0,0,0,0,0,0,0,0,0,0,0,0,0,0,0,0],"sum_hessian":[3.2066723E1,1.2111035E1,1.9955688E1,1.6363382E0,1.0474697E1,1.5223998E1,4.7316904E0,8.278173E0,2.1965234E0,9.809605E0,5.414393E0,1.2315532E0,3.5001373E0,5.204281E0,3.0738926E0,1.9332991E0,7.8763056E0,2.291045E0,3.1233482E0,2.2972372E0,1.2029002E0],"tree_param":{"num_deleted":"0","num_feature":"2","num_nodes":"21","size_leaf_vector":"0"}},{"base_weights":[-4.494733E-1,-5.169952E-1,-9.990012E-2,-3.2059172E-1,-6.643018E-1,2.5026807E-1,-3.092089E-1,-5.441417E-3,-7.283339E-1,-9.6687734E-1,-4.1300866E-1,-6.9611806E-1,-1.2456302E-3,-2.555445E-1,4.5143935E-1,-3.0820853E-1,-9.048323E-1,3.083819E-1,-5.398265E-1,4.4059825E-1,-4.9609777E-1],"categories":[],"categories_nodes":[],"categories_segments":[],"categories_sizes":[],"default_left":[true,true,true,true,true,false,true,true,true,false,true,false,true,false,false,false,false,false,false,false,false],"id":55,"left_children":[1,3,5,7,9,-1,11,13,15,-1,17,-1,19,-1,-1,-1,-1,-1,-1,-1,-1],"loss_changes":[7.221947E-1,5.7505894E-1,5.5722773E-1,1.7444382E0,7.131791E-1,0E0,5.4067755E-1,1.1074338E0,1.604116E-1,0E0,1.0574275E0,0E0,9.909369E-1,0E0,0E0,0E0,0E0,0E0,0E0,0E0,0E0],"parents":[2147483647,0,0,1,1,2,2,3,3,4,4,6,6,7,7,8,8,10,10,12,12],"right_children":[2,4,6,8,10,-1,12,14,16,-1,18,-1,20,-1,-1,-1,-1,-1,-1,-1,-1],"split_conditions":[1.0145812E0,-1.2502342E-1,1.3181243E0,2.5255118E-2,3.4914604E-1,7.7877045E-3,1.7116063E0,-3.3128768E-1,-8.4292483E-1,-3.0086758E-2,4.3777585E-1,-2.166142E-2,2.0376341E0,-7.951894E-3,1.4047641E-2,-9.590664E-3,-2.8156074E-2,9.596058E-3,-1.6798025E-2,1.3710294E-2,-1.54372975E-2],"split_indices":[0,1,0,0,1,0,0,0,1,0,1,0,0,0,0,0,0,0,0,0,0],"split_type":[0,0,0,0,0,0,0,0,0,0,0,0,0,0,0,0,0,0,0,0,0],"sum_hessian":[3.1784605E1,2.623772E1,5.5468845E0,1.260623E1,1.3631492E1,2.0019634E0,3.5449214E0,7.6820207E0,4.924209E0,4.8927045E0,8.738787E0,1.0124892E0,2.532432E0,5.2492056E0,2.4328148E0,2.2691388E0,2.6550703E0,1.0925026E0,7.6462846E0,1.3957926E0,1.1366396E0],"tree_param":{"num_deleted":"0","num_feature":"2","num_nodes":"21","size_leaf_vector":"0"}},{"base_weights":[-4.4141248E-1,-2.2413087E-1,-5.5732954E-1,-8.2978743E-1,-6.56963E-2,-6.8132055E-1,-1.1361396E-1,-2.1602876E-1,3.8785708E-1,-7.8439736E-1,-4.0268138E-1,5.3614384E-1,-4.1347578E-1,1.1368038E-1,-6.725935E-1,-1.1299919E-1,-9.196472E-1,-8.1968117E-1,2.3321996E-2,-7.373242E-2,-7.3446786E-1],"categories":[],"categories_nodes":[],"categories_segments":[],"categories_sizes":[],"default_left":[true,true,true,false,true,true,true,true,false,true,true,false,true,false,false,false,false,false,false,false,false],"id":56,"left_children":[1,3,5,-1,7,9,11,13,-1,15,17,-1,19,-1,-1,-1,-1,-1,-1,-1,-1],"loss_changes":[6.9473934E-1,1.1923672E0,1.0531335E0,0E0,8.60116E-1,1.3968134E-1,1.3299532E0,1.4604169E0,0E0,8.516321E-1,1.145005E0,0E0,4.3186092E-1,0E0,0E0,0E0,0E0,0E0,0E0,0E0,0E0],"parents":[2147483647,0,0,1,1,2,2,4,4,5,5,6,6,7,7,9,9,10,10,12,12],"right_children":[2,4,6,-1,8,10,12,14,-1,16,18,-1,20,-1,-1,-1,-1,-1,-1,-1,-1],"split_conditions":[-4.3375057E-1,-1.377658E0,9.503516E-1,-2.582087E-2,1.1430651E0,3.4914604E-1,1.0581845E0,1.4410272E-1,1.2069124E-2,-8.484354E-1,1.7461765E-1,1.668343E-2,2.4171748E0,3.5374435E-3,-2.0929394E-2,-3.5162468E-3,-2.8617077E-2,-2.5506388E-2,7.2572107E-4,-2.2943649E-3,-2.2854768E-2],"split_indices":[1,1,1,0,0,1,1,0,0,0,0,0,1,0,0,0,0,0,0,0,0],"split_type":[0,0,0,0,0,0,0,0,0,0,0,0,0,0,0,0,0,0,0,0,0],"sum_hessian":[3.1543207E1,1.1994175E1,1.9549032E1,1.608367E0,1.0385808E1,1.4860854E1,4.688178E0,8.193673E0,2.1921353E0,9.52294E0,5.3379145E0,1.2315706E0,3.4566073E0,5.193898E0,2.9997747E0,1.9044558E0,7.618484E0,2.2304683E0,3.1074464E0,2.276657E0,1.1799501E0],"tree_param":{"num_deleted":"0","num_feature":"2","num_nodes":"21","size_leaf_vector":"0"}},{"base_weights":[-4.3439558E-1,-5.007426E-1,-9.473091E-2,-3.063184E-1,-6.480979E-1,2.5318897E-1,-3.0422822E-1,9.878257E-4,-7.109693E-1,-9.536953E-1,-3.995929E-1,-5.829562E-1,6.369531E-2,-4.287026E-1,2.6689225E-1,-2.9141653E-1,-8.9132273E-1,3.066211E-1,-5.261589E-1],"categories":[],"categories_nodes":[],"categories_segments":[],"categories_sizes":[],"default_left":[true,true,true,true,true,false,true,true,true,false,true,false,false,false,false,false,false,false,false],"id":57,"left_children":[1,3,5,7,9,-1,11,13,15,-1,17,-1,-1,-1,-1,-1,-1,-1,-1],"loss_changes":[6.797967E-1,5.682359E-1,5.512853E-1,1.6713822E0,7.070465E-1,0E0,5.001918E-1,1.100983E0,1.7916203E-1,0E0,1.021509E0,0E0,0E0,0E0,0E0,0E0,0E0,0E0,0E0],"parents":[2147483647,0,0,1,1,2,2,3,3,4,4,6,6,7,7,8,8,10,10],"right_children":[2,4,6,8,10,-1,12,14,16,-1,18,-1,-1,-1,-1,-1,-1,-1,-1],"split_conditions":[1.0145812E0,-1.2502342E-1,1.3181243E0,2.5255118E-2,3.4914604E-1,7.878595E-3,1.8031511E0,-1.0467734E0,-8.4292483E-1,-2.9676566E-2,4.3777585E-1,-1.8140111E-2,1.9820358E-3,-1.3340131E-2,8.305007E-3,-9.068139E-3,-2.7735692E-2,9.541267E-3,-1.6372724E-2],"split_indices":[0,1,0,0,1,0,0,1,1,0,1,0,0,0,0,0,0,0,0],"split_type":[0,0,0,0,0,0,0,0,0,0,0,0,0,0,0,0,0,0,0],"sum_hessian":[3.1270185E1,2.5763542E1,5.506644E0,1.2435114E1,1.3328428E1,1.9912113E0,3.5154326E0,7.6346498E0,4.800464E0,4.7048883E0,8.62354E0,1.6676335E0,1.8477992E0,2.684449E0,4.9502006E0,2.2295985E0,2.5708659E0,1.0943967E0,7.529143E0],"tree_param":{"num_deleted":"0","num_feature":"2","num_nodes":"19","size_leaf_vector":"0"}},{"base_weights":[-4.264638E-1,-2.1456379E-1,-5.4072666E-1,-8.1612164E-1,-5.8450624E-2,-6.658881E-1,-1.00734726E-1,-2.0561275E-1,3.8074568E-1,-7.689959E-1,-3.9081052E-1,5.359834E-1,-3.998441E-1,1.1415682E-1,-6.5736216E-1,-1.0407789E-1,-9.0632963E-1,-8.083434E-1,2.8121904E-2,-6.443337E-2,-7.2103167E-1],"categories":[],"categories_nodes":[],"categories_segments":[],"categories_sizes":[],"default_left":[true,true,true,false,true,true,true,true,false,true,true,false,true,false,false,false,false,false,false,false,false],"id":58,"left_children":[1,3,5,-1,7,9,11,13,-1,15,17,-1,19,-1,-1,-1,-1,-1,-1,-1,-1],"loss_changes":[6.601701E-1,1.1626643E0,1.043643E0,0E0,8.092863E-1,1.397767E-1,1.289394E0,1.3925937E0,0E0,8.424196E-1,1.1187482E0,0E0,4.2900598E-1,0E0,0E0,0E0,0E0,0E0,0E0,0E0,0E0],"parents":[2147483647,0,0,1,1,2,2,4,4,5,5,6,6,7,7,9,9,10,10,12,12],"right_children":[2,4,6,-1,8,10,12,14,-1,16,18,-1,20,-1,-1,-1,-1,-1,-1,-1,-1],"split_conditions":[-4.3375057E-1,-1.377658E0,9.503516E-1,-2.5395624E-2,1.1430651E0,3.4914604E-1,1.0581845E0,1.4410272E-1,1.1847835E-2,-8.484354E-1,1.7461765E-1,1.6678436E-2,2.4171748E0,3.5522692E-3,-2.0455435E-2,-3.2386386E-3,-2.8202668E-2,-2.5153587E-2,8.750819E-4,-2.0050022E-3,-2.2436667E-2],"split_indices":[1,1,1,0,0,1,1,0,0,0,0,0,1,0,0,0,0,0,0,0,0],"split_type":[0,0,0,0,0,0,0,0,0,0,0,0,0,0,0,0,0,0,0,0,0],"sum_hessian":[3.1057688E1,1.1888436E1,1.916925E1,1.578433E0,1.0310003E1,1.4524234E1,4.6450167E0,8.120799E0,2.1892045E0,9.25835E0,5.265883E0,1.231524E0,3.413493E0,5.19256E0,2.9282386E0,1.8858118E0,7.3725386E0,2.1718035E0,3.0940797E0,2.2570763E0,1.1564167E0],"tree_param":{"num_deleted":"0","num_feature":"2","num_nodes":"21","size_leaf_vector":"0"}},{"base_weights":[-4.1968924E-1,-4.8507252E-1,-8.8750884E-2,-2.930062E-1,-6.323348E-1,2.5584006E-1,-2.9781747E-1,5.7287174E-3,-6.9401616E-1,-9.4090813E-1,-3.8665208E-1,-5.691486E-1,5.9199106E-2,-2.4519047E-1,4.6177042E-1,-2.751334E-1,-8.7822115E-1,3.047204E-1,-5.129312E-1],"categories":[],"categories_nodes":[],"categories_segments":[],"categories_sizes":[],"default_left":[true,true,true,true,true,false,true,true,true,false,true,false,false,false,false,false,false,false,false],"id":59,"left_children":[1,3,5,7,9,-1,11,13,15,-1,17,-1,-1,-1,-1,-1,-1,-1,-1],"loss_changes":[6.448889E-1,5.5928135E-1,5.4224014E-1,1.5957898E0,7.003226E-1,0E0,4.6847972E-1,1.0980893E0,1.9671822E-1,0E0,9.8677456E-1,0E0,0E0,0E0,0E0,0E0,0E0,0E0,0E0],"parents":[2147483647,0,0,1,1,2,2,3,3,4,4,6,6,7,7,8,8,10,10],"right_children":[2,4,6,8,10,-1,12,14,16,-1,18,-1,-1,-1,-1,-1,-1,-1,-1],"split_conditions":[1.0145812E0,-1.2502342E-1,1.3181243E0,2.5255118E-2,3.4914604E-1,7.961091E-3,1.8031511E0,-3.3128768E-1,-8.4292483E-1,-2.9278662E-2,4.3777585E-1,-1.7710453E-2,1.8421252E-3,-7.6297023E-3,1.4369118E-2,-8.56145E-3,-2.7328003E-2,9.482122E-3,-1.5961112E-2],"split_indices":[0,1,0,0,1,0,0,0,1,0,1,0,0,0,0,0,0,0,0],"split_type":[0,0,0,0,0,0,0,0,0,0,0,0,0,0,0,0,0,0,0],"sum_hessian":[3.079334E1,2.5324287E1,5.4690537E0,1.228774E1,1.3036548E1,1.9806885E0,3.4883654E0,7.606754E0,4.6809855E0,4.524317E0,8.512231E0,1.6444277E0,1.8439379E0,5.2051654E0,2.4015887E0,2.1913877E0,2.4895978E0,1.0964034E0,7.4158273E0],"tree_param":{"num_deleted":"0","num_feature":"2","num_nodes":"19","size_leaf_vector":"0"}},{"base_weights":[-4.1189018E-1,-2.0609476E-1,-5.239593E-1,-8.052965E-1,-5.1557343E-2,-6.501478E-1,-8.836965E-2,-1.9573934E-1,3.7377915E-1,-7.5300586E-1,-3.793641E-1,2.2715874E-1,-7.0803857E-1,1.1484995E-1,-6.425594E-1,-9.073728E-2,-8.9321375E-1,-7.973269E-1,3.2572534E-2,-2.4493176E-1,7.0388114E-1],"categories":[],"categories_nodes":[],"categories_segments":[],"categories_sizes":[],"default_left":[true,true,true,false,true,true,true,true,false,true,true,true,false,false,false,false,false,false,false,false,false],"id":60,"left_children":[1,3,5,-1,7,9,11,13,-1,15,17,19,-1,-1,-1,-1,-1,-1,-1,-1,-1],"loss_changes":[6.201458E-1,1.1418338E0,1.0304227E0,0E0,7.617057E-1,1.3737679E-1,1.2563478E0,1.3285518E0,0E0,8.4677553E-1,1.0928549E0,1.1783301E0,0E0,0E0,0E0,0E0,0E0,0E0,0E0,0E0,0E0],"parents":[2147483647,0,0,1,1,2,2,4,4,5,5,6,6,7,7,9,9,10,10,11,11],"right_children":[2,4,6,-1,8,10,12,14,-1,16,18,20,-1,-1,-1,-1,-1,-1,-1,-1,-1],"split_conditions":[-4.3375057E-1,-1.377658E0,9.503516E-1,-2.5058772E-2,1.1430651E0,3.4914604E-1,2.4171748E0,1.4410272E-1,1.1631054E-2,-8.484354E-1,1.7461765E-1,7.5885803E-3,-2.2032356E-2,3.5738375E-3,-1.999481E-2,-2.823513E-3,-2.7794534E-2,-2.4810782E-2,1.0135742E-3,-7.621652E-3,2.1902986E-2],"split_indices":[1,1,1,0,0,1,1,0,0,0,0,0,0,0,0,0,0,0,0,0,0],"split_type":[0,0,0,0,0,0,0,0,0,0,0,0,0,0,0,0,0,0,0,0,0],"sum_hessian":[3.0570972E1,1.1779313E1,1.8791658E1,1.5517112E0,1.0227602E1,1.4188686E1,4.602972E0,8.041476E0,2.1861258E0,8.992149E0,5.1965375E0,3.469673E0,1.133299E0,5.182222E0,2.8592548E0,1.8588895E0,7.13326E0,2.11502E0,3.0815177E0,1.9876009E0,1.4820719E0],"tree_param":{"num_deleted":"0","num_feature":"2","num_nodes":"21","size_leaf_vector":"0"}},{"base_weights":[-4.054528E-1,-4.6945786E-1,-8.490192E-2,-2.7971816E-1,-6.164714E-1,2.562203E-1,-2.9303387E-1,-4.1874734E-1,4.68271E-1,-9.2848736E-1,-3.7323752E-1,-5.5578226E-1,5.2747812E-2,-2.350176E-1,-8.1340826E-1,3.0269048E-1,-4.9916407E-1],"categories":[],"categories_nodes":[],"categories_segments":[],"categories_sizes":[],"default_left":[true,true,true,true,true,false,true,true,false,false,true,false,false,false,false,false,false],"id":61,"left_children":[1,3,5,7,9,-1,11,13,-1,-1,15,-1,-1,-1,-1,-1,-1],"loss_changes":[6.025076E-1,5.493908E-1,5.317316E-1,1.561263E0,6.9695187E-1,0E0,4.346207E-1,6.498153E-1,0E0,0E0,9.510784E-1,0E0,0E0,0E0,0E0,0E0,0E0],"parents":[2147483647,0,0,1,1,2,2,3,3,4,4,6,6,7,7,10,10],"right_children":[2,4,6,8,10,-1,12,14,-1,-1,16,-1,-1,-1,-1,-1,-1],"split_conditions":[1.0145812E0,-1.2502342E-1,1.3181243E0,-2.5649095E-1,3.4914604E-1,7.972923E-3,1.8031511E0,-5.696496E-1,1.4571399E-2,-2.889216E-2,4.3777585E-1,-1.7294526E-2,1.6413775E-3,-7.3131486E-3,-2.531119E-2,9.418956E-3,-1.5532713E-2],"split_indices":[0,1,0,1,1,0,0,1,0,0,1,0,0,0,0,0,0],"split_type":[0,0,0,0,0,0,0,0,0,0,0,0,0,0,0,0,0],"sum_hessian":[3.0309124E1,2.4877289E1,5.431836E0,1.2127663E1,1.2749626E1,1.9707639E0,3.4610724E0,1.059798E1,1.529683E0,4.3509912E0,8.398635E0,1.6215713E0,1.8395011E0,8.320132E0,2.2778468E0,1.0985124E0,7.3001223E0],"tree_param":{"num_deleted":"0","num_feature":"2","num_nodes":"17","size_leaf_vector":"0"}},{"base_weights":[-3.9739406E-1,-1.9721134E-1,-5.077439E-1,-7.934113E-1,-4.4747874E-2,-6.346834E-1,-7.674224E-2,-1.8566152E-1,3.669874E-1,-7.372104E-1,-3.6833644E-1,2.3430686E-1,-6.954715E-1,1.18996456E-1,-6.310634E-1,-2.4999201E-1,-9.717281E-1,-7.8661937E-1,3.668525E-2,-2.3145448E-1,6.9624597E-1],"categories":[],"categories_nodes":[],"categories_segments":[],"categories_sizes":[],"default_left":[true,true,true,false,true,true,true,true,false,true,true,true,false,false,false,false,false,false,false,false,false],"id":62,"left_children":[1,3,5,-1,7,9,11,13,-1,15,17,19,-1,-1,-1,-1,-1,-1,-1,-1,-1],"loss_changes":[5.870819E-1,1.1180081E0,1.0137563E0,0E0,7.159505E-1,1.3435411E-1,1.2321879E0,1.2939932E0,0E0,8.692827E-1,1.0673398E0,1.1175328E0,0E0,0E0,0E0,0E0,0E0,0E0,0E0,0E0,0E0],"parents":[2147483647,0,0,1,1,2,2,4,4,5,5,6,6,7,7,9,9,10,10,11,11],"right_children":[2,4,6,-1,8,10,12,14,-1,16,18,20,-1,-1,-1,-1,-1,-1,-1,-1,-1],"split_conditions":[-4.3375057E-1,-1.377658E0,9.503516E-1,-2.4688937E-2,1.1430651E0,3.4914604E-1,2.4171748E0,1.4410272E-1,1.1419713E-2,-3.0398488E-1,1.7461765E-1,7.5885803E-3,-2.1641301E-2,3.7028664E-3,-1.9637084E-2,-7.779114E-3,-3.02377E-2,-2.447759E-2,1.1415514E-3,-7.2022732E-3,2.16654E-2],"split_indices":[1,1,1,0,0,1,1,0,0,0,0,0,0,0,0,0,0,0,0,0,0],"split_type":[0,0,0,0,0,0,0,0,0,0,0,0,0,0,0,0,0,0,0,0,0],"sum_hessian":[3.0109585E1,1.1690077E1,1.8419508E1,1.5245327E0,1.0165544E1,1.3863751E1,4.555757E0,7.9826207E0,2.182923E0,8.733889E0,5.129863E0,3.4451249E0,1.1106321E0,5.1754265E0,2.8071942E0,3.5092623E0,5.2246265E0,2.0601223E0,3.0697408E0,1.9639125E0,1.4812123E0],"tree_param":{"num_deleted":"0","num_feature":"2","num_nodes":"21","size_leaf_vector":"0"}},{"base_weights":[-3.9135692E-1,-1.9426095E-1,-5.005187E-1,-7.84864E-1,-4.392724E-2,-6.262714E-1,-7.5991414E-2,-1.8236336E-1,3.593645E-1,-7.2837865E-1,-3.6274576E-1,2.3081312E-1,-6.8839747E-1,1.1582957E-1,-6.225802E-1,-2.4499632E-1,-9.643958E-1,-7.793956E-1,3.5805337E-2,-2.2725625E-1,6.841726E-1],"categories":[],